<?xml version="1.0"?>
<opencv_storage>
<opencv_ml_svm>
  <format>3</format>
  <svmType>C_SVC</svmType>
  <kernel>
    <type>LINEAR</type></kernel>
  <C>1.</C>
  <term_criteria><iterations>100</iterations></term_criteria>
  <var_count>136</var_count>
  <class_count>7</class_count>
  <class_labels type_id="opencv-matrix">
    <rows>7</rows>
    <cols>1</cols>
    <dt>i</dt>
    <data>
      0 1 2 3 4 5 6</data></class_labels>
  <sv_total>21</sv_total>
  <support_vectors>
    <_>
      -1.93997868e-03 3.85745801e-03 -1.48001336e-03 3.43338447e-03
      -1.42979121e-03 2.54582032e-03 -2.17021699e-03 2.01786216e-03
      -3.07505718e-03 2.00015493e-03 -3.13723506e-03 1.31353782e-03
      -2.03896267e-03 2.26856966e-04 -8.19791865e-04 -8.15612671e-04
      2.31400598e-04 -7.58383889e-04 1.43905135e-03 -8.33309241e-06
      2.86887540e-03 8.77302897e-04 3.78495944e-03 2.13229307e-03
      4.19359654e-03 2.48829345e-03 3.41420178e-03 2.51885434e-03
      3.20310774e-03 2.38472992e-03 3.28179332e-03 2.66622170e-03
      2.56869872e-03 2.50067702e-03 -2.05132784e-03 2.54424382e-03
      -2.33078212e-03 1.61345338e-03 -1.48649688e-03 1.32631941e-03
      -8.77449987e-04 6.13099663e-04 -2.94577738e-04 4.03921615e-04
      -1.73166732e-03 6.27175206e-04 -1.20894145e-03 -2.79943983e-04
      1.45588041e-04 -9.79903489e-05 1.33394508e-03 1.05079671e-03
      1.31515856e-03 2.41942261e-03 -8.46589624e-04 -1.20200729e-03
      -1.97900270e-04 -8.78918683e-04 1.45646743e-04 -1.20747881e-03
      5.17902605e-04 -1.06049853e-03 -5.72710298e-04 -5.32450067e-05
      -1.78096918e-04 -2.38348162e-04 2.06201512e-04 3.18197795e-06
      6.84034836e-04 -3.13390890e-04 8.37652129e-04 -3.67220171e-04
      -7.15335307e-04 9.92763904e-04 -5.18451154e-04 9.55299824e-04
      -8.07770877e-04 7.20216951e-04 -2.67946365e-04 -3.96884774e-04
      -2.14413682e-04 -4.05086554e-04 1.92175110e-04 -1.77936527e-04
      -8.89447751e-04 -4.21198638e-04 -1.30037297e-04 2.88233481e-04
      -3.45528388e-04 1.01317326e-03 -4.83709482e-05 3.26691341e-04
      -3.33667820e-04 -5.62472618e-04 -3.64003936e-04 -7.36021553e-04
      -7.88913225e-04 5.81743370e-04 -1.10454050e-04 1.30048720e-03
      -1.36843926e-06 1.20846205e-03 3.65331129e-04 1.36631809e-03
      4.45537880e-04 1.05532713e-03 2.50297191e-04 5.34681312e-04
      1.06978847e-03 -7.66196899e-05 3.50160029e-04 -4.03392594e-03
      5.73923811e-04 -6.13410678e-03 1.93761825e-05 -6.32393267e-03
      -1.44401143e-04 -5.90538699e-03 -2.02477822e-04 -3.53213469e-03
      -2.47236225e-04 4.56901558e-04 -1.06206593e-04 1.01515255e-03
      3.40218074e-04 1.01226708e-03 8.69490672e-04 8.62017157e-04
      1.99903719e-04 -4.64885845e-04 1.01255333e-04 -5.74065838e-03
      -7.74719447e-05 -5.96478069e-03 -1.80934658e-04 -5.60251717e-03</_>
    <_>
      -6.22234819e-03 1.17869209e-02 2.32020533e-03 1.03831273e-02
      -5.37749787e-04 8.73650983e-03 -5.88795450e-03 8.27975944e-03
      -4.73539671e-03 5.97138982e-03 -5.05073403e-04 2.85749766e-03
      -5.65334514e-04 1.12823648e-02 -4.06923844e-03 2.08481736e-02
      -1.65602134e-03 2.61612982e-02 -1.39554252e-03 1.66539233e-02
      -4.39973839e-04 -5.48277656e-03 -2.55924184e-03 -1.21560469e-02
      5.12032537e-04 -1.53364884e-02 4.70071333e-03 -1.61051154e-02
      1.38930639e-03 -1.83952916e-02 -1.34683913e-03 -1.48746865e-02
      -3.81122949e-03 -1.60916969e-02 1.71967763e-02 -1.21727679e-02
      1.37784313e-02 -7.22601358e-03 1.90129169e-04 -8.54845252e-03
      -1.07243843e-02 -7.85940327e-03 -1.16398344e-02 -1.29744746e-02
      2.05759555e-02 2.78266915e-03 1.26459552e-02 -8.87251052e-04
      6.49696309e-03 -9.57948901e-03 -1.17198122e-03 -1.64113753e-02
      -5.88823762e-03 -2.55479906e-02 -1.93639984e-03 1.36964470e-02
      1.65573612e-03 1.36772497e-02 6.26481371e-03 1.14840884e-02
      1.01176836e-02 2.09125951e-02 4.83124470e-03 1.06423432e-02
      1.04323141e-02 9.17011406e-03 1.12615274e-02 1.59796737e-02
      3.41625814e-03 1.50296837e-02 -2.87670898e-03 8.62328988e-03
      1.56765860e-02 3.90041480e-03 1.27516631e-02 -2.93038390e-03
      6.81239692e-03 -6.78337645e-04 5.21766813e-03 7.76348228e-04
      5.39710699e-03 1.12575607e-03 8.00883584e-03 3.73552204e-03
      -2.64190277e-03 -2.93604462e-05 -3.53964185e-03 8.31056212e-04
      -6.75126072e-03 1.21168479e-04 -9.82531812e-03 2.78307684e-03
      -5.79483109e-03 8.22182978e-04 -5.89318015e-03 1.32112019e-03
      -1.84407309e-02 -2.57271305e-02 -3.88233084e-03 -8.28256016e-04
      -6.92822447e-04 1.08783031e-02 -2.16239854e-03 8.99019651e-03
      -7.07662944e-03 1.13606947e-02 -9.32198204e-03 -4.78619942e-03
      -4.59360844e-03 -1.76945832e-02 -9.46758501e-03 7.92918960e-04
      -1.30158057e-02 4.29691002e-03 -8.41373485e-03 7.56241567e-03
      -8.85214005e-03 8.04864708e-03 -1.24112098e-02 1.65323506e-03
      -1.23655293e-02 -1.23100150e-02 -2.40824488e-03 -1.19970478e-04
      -1.12068281e-03 -3.00184125e-03 -7.75853498e-03 -1.25134632e-03
      -7.14270305e-03 -1.15988860e-02 -1.14356568e-02 1.53394639e-02
      -7.98498373e-03 1.41172158e-02 -6.99434895e-03 1.38111003e-02</_>
    <_>
      -3.88276312e-05 6.11589151e-03 6.68049674e-04 5.44923590e-03
      1.56387710e-03 4.78302035e-03 2.90897908e-03 4.00586147e-03
      4.38093115e-03 3.79924825e-03 5.30564878e-03 3.42992437e-03
      5.55831473e-03 3.28990631e-03 5.20842150e-03 2.91534420e-03
      3.78571777e-03 2.65708193e-03 1.87366805e-03 1.95868849e-03
      3.72120150e-04 1.21397548e-03 -1.94491484e-04 1.39149604e-03
      -1.88169342e-05 9.92939225e-04 -4.19339922e-04 6.95296039e-04
      -4.74975706e-04 1.00268621e-03 -1.67240342e-03 1.78448355e-03
      -3.25654703e-03 2.28523300e-03 2.16529286e-03 2.52138753e-03
      1.02778373e-03 1.68716093e-03 1.10239699e-03 1.57301256e-04
      8.56418570e-04 -2.29931576e-03 8.68034957e-04 -3.43788113e-03
      -5.78843895e-03 -3.39602144e-03 -5.41976374e-03 -3.34772235e-03
      -5.09469863e-03 -2.52437312e-03 -4.94970335e-03 -8.52428202e-04
      -5.99011872e-03 1.28699502e-03 -1.03109155e-03 -9.37411154e-04
      -1.38973119e-04 -8.84866633e-04 5.64902497e-04 -1.36505917e-03
      8.14731000e-04 -4.70665458e-04 3.32715746e-04 -2.00499737e-04
      4.76732035e-04 3.74505471e-04 1.72663174e-04 -3.46222405e-05
      8.57612758e-04 -1.64874829e-04 4.23824822e-04 -1.75256879e-04
      2.33453535e-03 9.41305945e-04 2.05075718e-03 8.86621070e-04
      9.56196920e-04 3.70843423e-04 6.05498499e-04 -6.73529285e-04
      1.89304783e-03 -1.51164306e-03 2.80753500e-03 -5.27516124e-04
      -3.47899646e-03 -1.29006756e-03 -3.32310935e-03 -4.38264658e-04
      -4.42020781e-03 -3.74235533e-04 -5.00370003e-03 1.31917550e-04
      -4.58029751e-03 -1.81241473e-03 -2.98373215e-03 -1.64201274e-03
      4.12973954e-04 2.38364865e-03 -3.72957031e-04 1.71007487e-04
      9.96754825e-05 -8.30872508e-04 3.84140760e-04 -8.28956603e-04
      2.26077929e-04 -8.02376831e-04 3.60204460e-04 -1.52339726e-05
      -7.05801998e-04 2.33546062e-03 5.20702801e-04 3.46520520e-03
      8.95637146e-04 3.39508965e-03 9.88946762e-04 3.21573741e-03
      5.48092998e-04 2.92546512e-03 -3.25678993e-04 2.30191858e-03
      1.07559445e-03 1.55591418e-03 5.31136000e-04 -8.83312663e-04
      6.35527889e-04 -1.23960292e-03 5.93949575e-04 -9.51245835e-04
      -1.16098020e-03 1.93799299e-03 6.41227118e-04 2.79553095e-03
      6.35527889e-04 2.29196576e-03 1.46953011e-04 2.50597950e-03</_>
    <_>
      -2.30124104e-03 3.68853007e-03 -2.15163291e-03 3.38188582e-03
      -2.73995148e-03 2.24556145e-03 -3.81098525e-03 1.72029401e-03
      -4.00138041e-03 2.00820458e-03 -3.69344116e-03 1.65200769e-03
      -2.30664830e-03 6.10744755e-04 -7.93743355e-04 5.79908316e-04
      -1.04489831e-04 1.06294232e-03 1.18240621e-03 1.74293621e-03
      2.07580789e-03 2.22816132e-03 2.92781298e-03 3.23527958e-03
      3.00015043e-03 3.70361144e-03 2.65386584e-03 3.56082944e-03
      1.80091430e-03 3.10119125e-03 6.98812539e-04 2.57788040e-03
      -9.79734177e-05 2.98629096e-03 2.10535899e-03 2.60501169e-03
      8.58087034e-04 1.63838768e-03 9.98389674e-04 9.65666724e-04
      8.26398784e-04 9.18900536e-04 2.77728977e-04 1.65458547e-03
      -1.72085804e-03 1.21521030e-03 -1.66532199e-03 4.14900598e-04
      -1.81312999e-03 8.26197444e-04 -1.98321836e-03 2.96428078e-03
      -2.89168349e-03 4.18204674e-03 -5.06578326e-05 1.16223913e-04
      4.58042690e-04 -3.42937856e-04 1.73250155e-03 -3.23918561e-04
      2.11736374e-03 -6.68739260e-04 9.78053897e-04 -8.31177633e-04
      1.15292636e-03 -8.83207249e-04 1.78838964e-03 -1.02820131e-03
      2.25790823e-03 -1.37118623e-03 1.95507985e-03 -1.41357351e-03
      1.93845946e-03 2.29273387e-03 1.83526881e-03 2.37394287e-03
      1.00032659e-03 2.25365325e-03 1.19084562e-03 7.73089530e-04
      1.71691738e-03 2.57132720e-04 2.55185878e-03 7.88036152e-04
      -1.92553247e-03 8.53703648e-04 -1.74970075e-03 2.20377464e-03
      -3.20192077e-03 2.59973574e-03 -3.18177417e-03 2.33353651e-03
      -3.07952752e-03 -4.55840527e-05 -1.87068642e-03 -2.76870036e-04
      1.06816180e-03 -7.53343455e-04 2.52057565e-03 -1.47951813e-03
      2.39172066e-03 -8.21326568e-04 2.61979154e-03 -1.25956058e-03
      2.57600914e-03 -1.34254328e-03 2.53291591e-03 -2.10542860e-03
      2.48437980e-03 -2.48825084e-03 2.79812748e-03 -3.75841605e-03
      2.74884491e-03 -4.72283363e-03 2.35062721e-03 -4.63321107e-03
      2.37609330e-03 -4.66118008e-03 1.99558144e-03 -3.07431282e-03
      1.75013358e-03 -1.10866153e-03 2.22256803e-03 -6.45319931e-04
      2.43709562e-03 -8.14478786e-04 2.94369832e-03 -1.20740489e-03
      3.03088943e-03 -2.76631443e-03 2.82884715e-03 -4.19350620e-03
      2.43709562e-03 -4.60154656e-03 2.58331839e-03 -4.77760285e-03</_>
    <_>
      -3.88692686e-04 2.18623807e-03 -5.94514131e-04 1.68094222e-04
      -1.58338656e-03 1.43584417e-04 -1.97877013e-03 -1.18005613e-04
      -1.28798524e-03 2.86445324e-03 -2.10037874e-03 3.98393115e-03
      -5.09106845e-04 6.06281403e-03 3.01690568e-04 7.70779233e-03
      7.48816296e-04 8.52088816e-03 6.03683176e-04 7.22224358e-03
      3.95435229e-04 4.23540128e-03 2.55901879e-03 4.15870966e-03
      3.55247129e-03 2.92939669e-03 2.28827470e-03 1.78295246e-03
      1.68335368e-03 1.71608350e-04 -1.96474255e-03 -9.78431664e-04
      -5.17603243e-03 -2.77516278e-06 4.88618156e-03 -3.03409557e-04
      5.98406279e-03 2.33711465e-03 5.29538700e-03 4.64965310e-03
      3.36526567e-03 6.63812365e-03 2.52377219e-03 8.54389835e-03
      -2.82955240e-03 6.25090254e-03 -5.69301518e-03 2.85177608e-03
      -6.57845056e-03 -2.77897576e-03 -6.10156171e-03 -4.89147566e-03
      -5.81204193e-03 -5.19329449e-03 1.08177646e-03 1.74062047e-03
      1.74028019e-03 -1.35663489e-03 2.43785395e-03 -3.28778033e-03
      2.78958469e-03 -5.24661085e-03 -1.47225501e-05 -4.25764825e-03
      1.10335357e-03 -3.52708949e-03 2.35918467e-03 -3.00598890e-03
      2.83796852e-03 -4.12967242e-03 4.35968908e-03 -4.39864304e-03
      3.84361739e-03 3.47327464e-03 4.10189759e-03 3.60151194e-03
      2.88765016e-03 3.22813774e-03 2.11422704e-03 2.14702054e-03
      2.91618495e-03 1.77092338e-03 4.13043238e-03 1.85739028e-03
      -3.53002804e-03 1.16348732e-04 -4.01654886e-03 -2.27891331e-04
      -4.95256344e-03 -7.91402243e-04 -3.85243585e-03 -2.05276906e-03
      -3.58816981e-03 -1.70385523e-03 -3.04282922e-03 -6.71436370e-04
      -5.26027288e-04 -3.05891060e-03 1.00669323e-03 -3.75551172e-03
      2.10172567e-03 -2.24316819e-03 1.82882056e-03 -2.71952059e-03
      1.38564745e-03 -3.08313058e-03 1.54777302e-03 -4.15489217e-03
      2.46767001e-03 -3.13114305e-03 1.50424626e-03 4.32120403e-03
      7.75756198e-04 5.39666181e-03 1.02521526e-03 5.14598750e-03
      1.05879200e-03 4.52291919e-03 -3.28190392e-04 2.33423221e-03
      3.60592559e-04 -2.51108082e-03 2.11035856e-03 -4.93856519e-03
      1.58266083e-03 -4.21072030e-03 5.54379658e-04 -4.03627986e-03
      1.89280300e-03 -2.10984936e-03 7.16085488e-04 5.85198216e-03
      1.05548871e-03 5.64663811e-03 1.54880248e-03 5.53480675e-03</_>
    <_>
      -2.42081424e-03 -4.11971705e-03 -3.77588347e-03 9.86981759e-05
      -9.99325607e-03 5.52036567e-04 -9.45415534e-03 2.06057657e-03
      -5.97339729e-03 1.74690748e-03 -7.52490363e-04 -1.54533761e-03
      4.27478319e-03 -7.13840825e-04 8.01094621e-03 2.14735675e-03
      4.04262776e-03 -3.61728575e-03 1.67734898e-03 -6.03791839e-03
      -6.16307976e-03 -9.08533391e-03 -4.03916370e-03 -9.94679239e-03
      -9.92215145e-03 -1.45988138e-02 -5.25214942e-03 -1.60797983e-02
      -3.95918824e-03 -1.67857651e-02 7.14661088e-04 -1.38241900e-02
      2.86988774e-03 -1.66577771e-02 1.33761736e-02 -1.04503874e-02
      1.33929104e-02 -3.20611917e-03 6.98281871e-03 5.24445577e-03
      3.47839814e-04 7.00201560e-03 -1.07991777e-03 -7.45790428e-04
      9.88676213e-03 2.66993255e-03 8.85450654e-03 9.37796105e-03
      -8.82368884e-04 1.17718487e-03 -3.24982288e-03 -8.02683458e-03
      -4.50734934e-03 -1.36648808e-02 -8.13367893e-04 1.76040782e-03
      -2.90486380e-03 3.78282601e-03 -3.35700437e-03 1.88501237e-03
      -2.44879676e-03 4.16155346e-03 5.14388736e-03 5.73580666e-03
      1.02798094e-03 6.01985818e-03 -4.21963446e-03 6.42549573e-03
      -4.84972494e-03 4.45406511e-03 -8.15521460e-03 -3.81646049e-03
      1.23628434e-02 -5.86125068e-03 1.03020538e-02 -3.20919347e-03
      8.82019941e-03 -3.33074527e-03 5.23171760e-03 -8.17637425e-03
      7.92532042e-03 -7.22426968e-03 1.05780559e-02 -7.30226655e-03
      -1.92220986e-03 -7.74470950e-03 -9.53519717e-04 -8.13296158e-03
      -2.97775143e-03 -5.37803676e-03 -5.92230540e-03 -9.60578304e-03
      -6.40089158e-03 -1.11767724e-02 -1.80200592e-03 -8.86396598e-03
      9.27769300e-03 8.70133936e-03 6.88824197e-03 1.71834249e-02
      2.34071282e-04 1.83493681e-02 -3.82003747e-03 1.86467804e-02
      -6.63789222e-03 1.40688065e-02 -1.68632306e-02 6.18701009e-03
      -1.80093031e-02 9.19613871e-04 -1.20096402e-02 -2.89711077e-03
      -1.68633473e-03 -3.96470726e-03 9.24562410e-05 -3.73894977e-03
      2.60741892e-03 1.58989849e-03 1.01043312e-02 7.62688182e-03
      9.77606047e-03 1.33598866e-02 6.46249391e-05 2.24947054e-02
      -1.83148764e-03 2.20000762e-02 -7.57354824e-03 1.68746710e-02
      -1.74206719e-02 9.98018775e-04 -5.26252808e-03 -4.57487116e-03
      1.41893793e-03 -2.64580525e-03 2.42542755e-03 1.89244817e-03</_>
    <_>
      2.31164298e-03 -2.66477000e-03 2.02100328e-03 -2.80969264e-03
      2.00023735e-03 -2.43611401e-03 2.64521688e-03 -2.51183053e-03
      3.12580238e-03 -2.52138637e-03 2.78003677e-03 -1.97354681e-03
      1.30126008e-03 -5.42763795e-04 3.23191751e-04 7.32852321e-04
      -5.82831039e-04 7.54422450e-04 -1.33798795e-03 2.34581494e-05
      -2.15376122e-03 -7.76558998e-04 -2.25429935e-03 -1.74334424e-03
      -2.04780372e-03 -1.88471260e-03 -1.12582941e-03 -1.76964945e-03
      -8.09039338e-04 -2.02106172e-03 -9.24121006e-04 -2.23726011e-03
      -3.63770814e-04 -2.30924995e-03 2.50062346e-03 -2.25234707e-03
      2.26323353e-03 -1.14216434e-03 1.35215744e-03 -7.67679187e-04
      2.88119307e-04 -1.99334812e-04 -5.50899538e-04 -1.73825247e-04
      1.36627140e-03 -2.57236155e-04 8.52625119e-04 3.21725762e-04
      -2.52674683e-04 9.56173317e-05 -1.27420714e-03 -5.78584441e-04
      -1.17712747e-03 -1.59787887e-03 2.55688588e-04 1.49522151e-03
      -1.48743624e-04 1.48246938e-03 -4.51623782e-04 1.93954213e-03
      -7.86859717e-04 1.88983441e-03 -2.85608203e-05 3.71068774e-04
      -3.38287413e-04 8.03879288e-04 -2.90205673e-04 9.05421213e-04
      -8.96158279e-04 1.01553916e-03 -9.32198483e-04 8.51619116e-04
      1.22207287e-03 -3.38648359e-04 1.05959864e-03 -4.71872889e-04
      1.06224336e-03 -1.16011106e-04 4.77561232e-04 4.24671220e-04
      5.51674981e-04 4.19598713e-04 5.31245198e-04 3.15197918e-04
      4.17612056e-04 7.65163277e-04 -1.54245543e-04 2.94783327e-04
      -2.35366737e-04 -1.28061816e-04 -2.50134355e-04 4.73080610e-04
      -1.30328801e-04 9.28899972e-04 1.40873562e-05 9.65849322e-04
      5.08903031e-05 -1.06505025e-03 -3.95940093e-04 -1.12121238e-03
      -4.80557996e-04 -4.83538810e-04 -9.08311515e-04 -6.16038684e-04
      -1.01244054e-03 -3.41076462e-04 -9.05387336e-04 -2.59365566e-04
      -1.44931709e-03 3.58980978e-05 -9.44557134e-04 3.55567806e-03
      -1.22024887e-03 5.24530001e-03 -7.83743570e-04 5.30177308e-03
      -5.60635119e-04 4.94987331e-03 -6.48506335e-04 2.85757333e-03
      -2.78346328e-04 -9.13841068e-04 -3.08067945e-04 -7.29324354e-04
      -8.02165538e-04 -6.24923385e-04 -1.33024645e-03 -5.17664477e-04
      -7.59420160e-04 4.55895322e-04 -9.24822874e-04 4.82249679e-03
      -6.29672257e-04 4.96558985e-03 -5.56677405e-04 4.60208068e-03</_>
    <_>
      1.58079399e-03 -2.57096457e-04 1.33026706e-03 -2.87246832e-04
      1.70266733e-03 2.32102160e-04 2.02651252e-03 3.67339584e-04
      2.55185924e-03 4.15378483e-04 2.76565179e-03 6.43697276e-04
      2.43623601e-03 1.15015928e-03 1.62882102e-03 1.77726254e-03
      6.96899195e-04 1.37062301e-03 -5.37221495e-04 8.34718172e-04
      -1.77919457e-03 5.34924329e-05 -2.37178104e-03 -6.56105578e-04
      -2.50862306e-03 -6.62617560e-04 -2.14406243e-03 -4.54629131e-04
      -2.12050439e-03 -1.35609647e-04 -2.52855732e-03 3.94975825e-04
      -2.65751383e-03 6.52221788e-04 2.42543500e-03 -8.64966190e-04
      2.56115035e-03 -6.05894602e-04 2.13656062e-03 -6.24525186e-04
      1.86787290e-03 -9.61779500e-04 1.59015669e-03 -1.41319458e-03
      -1.78940172e-04 -1.26194535e-03 -5.00610564e-04 -3.33199947e-04
      -1.20140030e-03 1.58023358e-05 -1.97133259e-03 -4.59716575e-05
      -2.30404222e-03 -4.67857404e-04 7.54055625e-04 -6.77427015e-05
      8.53577745e-04 -1.36473187e-04 7.08926702e-04 -1.96175053e-04
      4.80351882e-04 -2.35336280e-04 3.78475990e-04 -5.09995676e-04
      2.79071595e-04 -2.29145939e-04 1.25614475e-04 -2.62317481e-04
      1.38965726e-04 -1.79440816e-04 2.92258264e-05 -2.32776420e-05
      1.67517585e-03 -8.72390461e-04 1.72369182e-03 -7.15427974e-04
      1.33601297e-03 -7.76353234e-04 9.30172333e-04 -5.23976109e-04
      1.10577932e-03 -7.23987177e-04 1.54620316e-03 -5.45118004e-04
      -3.36265512e-04 -2.31013139e-04 -8.48301221e-04 -4.84200777e-04
      -9.56178061e-04 -5.61565452e-04 -1.24538795e-03 4.08215456e-05
      -9.79746925e-04 -4.07455344e-04 -5.94289915e-04 -3.43458931e-04
      1.57510251e-04 3.32784781e-04 -1.81378477e-04 -8.44000257e-04
      1.35231399e-04 -1.04184123e-03 -8.90208757e-05 -1.17594656e-03
      -8.14300711e-06 -9.03760432e-04 -1.58560797e-04 -2.25865064e-04
      -9.96366492e-04 1.35981315e-03 -3.17182217e-04 3.76445660e-03
      -3.70150054e-04 4.67101205e-03 -2.82567926e-04 4.81751887e-03
      -2.40255526e-04 4.47817380e-03 -5.02707786e-04 2.90073873e-03
      -8.74780881e-07 1.49575353e-04 2.36974767e-04 -1.17993704e-03
      2.97334664e-05 -1.22213713e-03 -1.76603106e-04 -7.82902294e-04
      -7.02829624e-04 1.21597340e-03 -4.06418658e-05 4.40269802e-03
      6.39513455e-05 4.27364511e-03 -6.81538440e-05 3.98481358e-03</_>
    <_>
      -1.33448979e-03 -8.02736322e-04 -1.97198265e-03 -1.69449183e-03
      -2.99048889e-03 -3.37395526e-04 -1.80931692e-03 -9.97465686e-04
      -1.44089246e-03 5.69788681e-04 -3.44250642e-04 9.37266566e-04
      -2.85389950e-04 2.52733426e-03 -7.21564866e-04 5.25762048e-03
      -1.93731952e-03 5.46613475e-03 -2.93276482e-03 5.21512469e-03
      -2.95260549e-03 4.07771394e-03 -2.43360223e-03 1.56630398e-04
      -2.92262342e-03 4.29416803e-04 -1.62798306e-03 -1.49442675e-03
      -2.55719153e-03 -1.91383506e-03 -3.84529610e-03 -3.19413585e-03
      -4.42868844e-03 -4.20928467e-03 4.25586104e-03 -1.08558452e-03
      2.93990807e-03 -8.36056075e-04 3.04023898e-03 -2.26282887e-03
      1.43311778e-03 -4.82596311e-04 6.98497635e-04 9.99611337e-04
      9.31919203e-04 -2.80389184e-04 -1.37220384e-04 1.18957134e-03
      -3.04981926e-03 1.37745996e-03 -6.00318005e-03 1.64840790e-03
      -6.33212738e-03 -2.22667601e-04 7.61077172e-05 1.06516923e-03
      8.99157603e-04 -1.99280490e-04 6.05001987e-04 -5.60404828e-07
      7.54673732e-04 -8.79076251e-04 1.07039977e-03 -2.95347814e-03
      1.23250426e-03 -2.34655477e-03 9.86902625e-04 -2.81436136e-03
      2.74220947e-04 -2.76380009e-03 2.78367603e-04 -3.72840837e-03
      2.61639548e-03 1.87100167e-03 2.02096580e-03 1.32128631e-03
      1.70352473e-03 1.72528671e-03 -5.48127864e-04 1.52316317e-03
      3.97062598e-04 2.32751030e-04 2.47680256e-03 1.89480581e-03
      -4.46579332e-04 7.39606970e-04 -2.32051057e-03 8.06027732e-04
      -3.99337569e-03 1.23671151e-03 -5.11624990e-03 1.56514405e-03
      -4.10443498e-03 -2.17774592e-04 -1.96005055e-03 -6.86505984e-04
      6.30758237e-04 -2.10448774e-03 1.20389287e-03 -5.28541114e-03
      2.35758559e-03 -5.64658130e-03 2.19252123e-03 -7.04570906e-03
      1.89668790e-03 -6.65103178e-03 2.61631398e-03 -6.20499672e-03
      1.54601072e-03 -3.14526726e-03 2.49335472e-03 6.04521856e-03
      1.45189313e-03 1.01021621e-02 2.07992457e-03 1.04027335e-02
      1.59900589e-03 9.69191641e-03 4.14405891e-04 4.58568754e-03
      -1.77155525e-05 -3.28887487e-03 2.33099074e-03 -5.55928471e-03
      1.97081477e-03 -6.86779851e-03 9.71117639e-04 -6.35465048e-03
      4.52737790e-03 -3.45332525e-03 2.27952516e-03 9.99276247e-03
      3.06459097e-03 1.06508154e-02 1.96593814e-03 9.43884626e-03</_>
    <_>
      -6.63988394e-05 -3.60392878e-04 6.12750273e-06 -4.66436701e-04
      -1.34528746e-04 3.55253462e-04 5.24375180e-04 8.75622849e-04
      1.14291196e-03 1.49067875e-03 1.70524511e-03 1.83167472e-03
      1.69136282e-03 2.55047367e-03 1.42825639e-03 3.80657194e-03
      5.40259702e-04 3.53815849e-03 -6.42508327e-04 2.41939933e-03
      -1.51242013e-03 7.06409977e-04 -1.59063598e-03 -3.34146986e-04
      -1.22686313e-03 -5.14748390e-04 -8.99170409e-04 -9.19167243e-04
      -1.33867306e-03 -1.24870276e-03 -2.09021894e-03 -1.54373026e-03
      -2.31094379e-03 -1.58442534e-03 5.20725094e-04 -8.73123412e-04
      1.31502282e-03 3.63293912e-05 1.10353448e-03 6.00889616e-04
      6.31164410e-04 1.30955444e-03 4.06495063e-04 2.22008745e-03
      1.06783898e-03 1.82639970e-03 4.83598182e-04 1.40464352e-03
      -4.57119051e-04 -7.37665832e-05 -1.27271190e-03 -1.53065322e-03
      -5.26101212e-04 -2.77171913e-03 6.01249107e-04 1.54226413e-03
      6.14431396e-04 4.30450309e-04 4.03795158e-04 3.16277932e-04
      2.81221670e-04 -4.76121058e-04 1.12425492e-04 -1.01183716e-03
      3.27262765e-04 -8.08583456e-04 5.99875872e-04 -9.24606516e-04
      3.09304043e-04 -1.17824168e-03 7.92550854e-04 -1.40220986e-03
      9.04429689e-05 9.67976986e-04 2.34475025e-04 1.05100789e-03
      4.88852791e-04 1.13907282e-03 9.64201317e-05 1.44197524e-03
      -1.31030192e-05 1.66186376e-03 -4.36647060e-05 1.66186376e-03
      3.79257806e-04 9.19929473e-04 -6.10103831e-04 7.45538418e-05
      -3.55727534e-04 -4.51568834e-04 -6.99331358e-05 -2.59638997e-04
      -5.68746291e-05 5.80086955e-04 1.35758470e-04 8.24618386e-04
      -2.98894214e-04 -2.00848025e-03 1.94081134e-04 -2.71245372e-03
      8.90449272e-04 -2.39959545e-03 4.64122655e-04 -2.74289167e-03
      1.73550841e-04 -2.76517589e-03 3.16056161e-04 -2.49836105e-03
      3.07075446e-04 -1.86879735e-03 3.49950482e-04 3.87526769e-03
      -1.43025536e-04 6.37451233e-03 4.08424530e-04 6.80503622e-03
      5.06235694e-04 6.38769381e-03 -5.01253991e-04 3.41693056e-03
      -3.47417081e-04 -1.78466190e-03 1.16796256e-03 -3.15505359e-03
      3.41549166e-04 -3.01930052e-03 -3.18680366e-04 -3.03248269e-03
      8.64463917e-04 -1.30561087e-03 2.44503986e-04 6.09278632e-03
      6.19064609e-04 6.47562463e-03 5.44055947e-04 5.97428996e-03</_>
    <_>
      2.65077967e-03 -3.78732476e-03 2.08357954e-03 -3.81614245e-03
      1.89290324e-03 -3.58353951e-03 2.24777171e-03 -3.48641723e-03
      2.55548791e-03 -3.57954693e-03 1.98421511e-03 -2.97559286e-03
      7.53720757e-04 -1.99656887e-03 -2.12411847e-04 -9.35100776e-04
      -1.06255128e-03 -7.37396709e-04 -1.59554009e-03 -9.16280143e-04
      -1.63719407e-03 -8.71199358e-04 -1.43378216e-03 -1.29301287e-03
      -1.03430497e-03 -1.61142764e-03 -2.28648511e-04 -1.56804477e-03
      1.85291545e-04 -1.95904262e-03 2.61650275e-04 -2.39220867e-03
      9.87369101e-04 -2.72131478e-03 1.99928950e-03 -2.13106885e-03
      2.03495519e-03 -8.76216625e-04 1.14827894e-03 -1.57784001e-04
      3.46822460e-04 3.99484299e-04 -4.00883058e-04 4.79360839e-04
      4.81276569e-04 3.51227907e-04 3.33777280e-04 8.51866847e-04
      -3.06062633e-04 4.34122252e-04 -8.11069214e-04 -3.82151891e-04
      -2.97998893e-04 -1.39683939e-03 -4.69487830e-04 1.28706265e-03
      -1.01667398e-03 1.35812268e-03 -1.50063448e-03 1.83278788e-03
      -2.03086878e-03 1.89409114e-03 -8.01068556e-04 7.25581835e-04
      -1.22617022e-03 9.84249287e-04 -1.44181447e-03 9.93726891e-04
      -1.68997666e-03 1.05035456e-03 -1.51486951e-03 9.24525375e-04
      9.27687041e-04 -5.41945628e-04 7.31828914e-04 -3.06012225e-04
      7.00078730e-04 -1.19596887e-04 3.14820645e-04 3.69431014e-04
      2.36517095e-04 1.57415023e-04 3.20382125e-04 9.41889084e-05
      3.40849452e-04 6.68779016e-04 -1.46250371e-04 2.72852543e-04
      -5.90239215e-05 -3.84439518e-05 -4.05908622e-06 1.89078477e-04
      -6.30255090e-05 5.49759076e-04 -6.12559379e-05 6.38861035e-04
      4.21967823e-04 -6.71140424e-06 -4.16821538e-04 6.82600439e-05
      -9.04678833e-04 2.98605068e-04 -1.28999958e-03 2.58823886e-04
      -1.46596984e-03 3.77737015e-04 -1.36473216e-03 3.50761227e-04
      -1.71304413e-03 7.33340741e-04 -1.22261059e-03 3.12736048e-03
      -1.29703130e-03 4.16101655e-03 -9.24740452e-04 4.17802855e-03
      -7.35698850e-04 4.08471934e-03 -3.37090401e-04 2.70058261e-03
      1.44731339e-05 1.79703769e-04 -8.02402210e-04 6.84646831e-04
      -1.21770124e-03 5.55766106e-04 -1.66512537e-03 6.61607308e-04
      -9.60163306e-04 9.97852767e-04 -1.11478684e-03 3.68608744e-03
      -8.45607137e-04 3.77529394e-03 -7.62514363e-04 3.60978837e-03</_>
    <_>
      -2.53361155e-04 5.11840731e-03 -3.11415060e-04 4.89876326e-03
      -2.17069755e-05 4.74950531e-03 1.52462174e-03 4.08553937e-03
      3.76499747e-03 3.52681731e-03 5.23663824e-03 3.00295278e-03
      6.20236527e-03 2.38460675e-03 5.74673153e-03 2.31940323e-03
      3.35503626e-03 1.53831975e-03 2.14899264e-04 1.03447842e-03
      -1.17944379e-03 1.46405026e-03 -2.35095900e-03 3.14068748e-03
      -1.76716573e-03 3.03593604e-03 -2.75505753e-03 3.04369489e-03
      -1.93397969e-03 3.35051725e-03 -3.18329479e-03 4.12840443e-03
      -4.56473697e-03 5.00433194e-03 1.94647233e-03 2.76195630e-03
      1.58728869e-03 1.61491032e-03 1.74644333e-03 -1.36141153e-03
      2.55459920e-03 -4.59174626e-03 2.24988861e-03 -5.00325020e-03
      -6.76363381e-03 -6.92989165e-03 -5.92284976e-03 -6.61276793e-03
      -5.07477857e-03 -5.63207781e-03 -4.22670832e-03 -2.64127250e-03
      -5.95790427e-03 8.67943745e-04 1.70299565e-04 -1.51062978e-03
      9.18740639e-04 -1.41314592e-03 1.57501444e-03 -2.10401183e-03
      1.58230274e-03 -8.37052008e-04 1.40492164e-03 1.03666622e-03
      1.16547174e-03 1.57314842e-03 -2.41242466e-04 2.46170617e-04
      8.53560341e-04 3.25994741e-04 1.04020769e-03 5.23389841e-04
      2.64210231e-03 1.75532280e-03 1.78635528e-03 1.39304087e-03
      1.25511899e-03 1.18108152e-03 1.02295110e-03 3.10769799e-04
      2.54218490e-03 -8.91344098e-04 3.07341758e-03 3.95718584e-04
      -3.72043229e-03 -1.34800584e-03 -2.87748873e-03 -6.27980626e-04
      -4.36625350e-03 -1.01417326e-03 -5.26919169e-03 -4.00022807e-04
      -4.33354592e-03 -2.05868483e-03 -2.79981829e-03 -1.09610183e-03
      9.95339127e-04 4.50467085e-03 -5.38381340e-04 1.69024360e-03
      2.17448483e-04 -6.44357002e-04 3.96713112e-05 -2.98069790e-04
      4.89129336e-04 -2.65435287e-04 1.21225824e-03 1.13199756e-03
      2.64356320e-04 3.12537397e-03 1.21953350e-03 4.00100974e-03
      1.11999002e-03 3.21780192e-03 1.74563623e-03 3.68166273e-03
      9.35408985e-04 3.17788753e-03 1.32389046e-04 2.79890001e-03
      1.49918778e-03 3.10002943e-03 2.64638569e-04 2.83449917e-04
      6.63244689e-04 -9.30997834e-04 1.04009395e-03 -7.26319326e-04
      -2.64925678e-04 2.46188533e-03 1.08728406e-03 2.77049094e-03
      7.10434164e-04 2.25728843e-03 3.11828015e-04 3.25977639e-03</_>
    <_>
      -1.85673975e-03 1.78785785e-03 -2.04550498e-03 1.69263768e-03
      -2.48811860e-03 1.37508858e-03 -3.19424295e-03 1.28516532e-03
      -3.18634650e-03 1.17427623e-03 -2.54124962e-03 8.92866752e-04
      -1.20239414e-03 -2.29930505e-04 -2.18505811e-04 -8.22514121e-04
      1.29036460e-04 -8.40380031e-04 2.64172384e-04 -2.94553523e-04
      6.13910845e-04 3.23681685e-04 3.73491814e-04 1.05807546e-03
      2.02898285e-04 1.53874909e-03 -4.02685197e-04 1.45777338e-03
      -8.45193630e-04 1.69532176e-03 -1.37330475e-03 1.79321610e-03
      -1.88594090e-03 2.35164026e-03 9.41613922e-04 2.22022319e-03
      7.55823741e-04 1.72038120e-03 9.60784673e-04 1.19239686e-03
      1.37772388e-03 1.36864069e-03 1.08331663e-03 1.74654811e-03
      -8.96130572e-04 1.21856353e-03 -8.31250334e-04 1.00625597e-03
      -9.39516292e-04 1.24153192e-03 -1.04778365e-03 2.23787013e-03
      -1.92508160e-03 3.27853905e-03 5.71182754e-04 2.19933281e-04
      8.40422348e-04 -1.24034981e-04 1.47719588e-03 -4.49856307e-04
      1.67158793e-03 -6.56418153e-04 1.04965444e-03 -4.56804206e-04
      1.02401280e-03 -5.18936140e-04 1.09933876e-03 -7.93047657e-04
      1.54219859e-03 -1.04414148e-03 1.47786981e-03 -9.27981106e-04
      9.83752776e-04 1.36639783e-03 9.03802284e-04 1.69007143e-03
      5.23621216e-04 1.58910349e-03 6.55930955e-04 7.89278303e-04
      8.91156611e-04 5.35707804e-04 1.27133657e-03 8.66802409e-04
      -9.99525771e-04 8.14969535e-04 -9.31741553e-04 1.65877922e-03
      -1.71589945e-03 1.81405572e-03 -1.89681666e-03 1.39723858e-03
      -1.65891519e-03 2.27631346e-04 -1.01216964e-03 3.20776307e-04
      9.40686441e-04 -8.75697064e-04 1.76407804e-03 -1.05921563e-03
      1.75143115e-03 -9.35229997e-04 1.87074335e-03 -8.96394136e-04
      2.07298086e-03 -1.07488339e-03 1.86622317e-03 -1.56655360e-03
      1.92340324e-03 -2.21377425e-03 1.98773202e-03 -3.22805485e-03
      2.07565422e-03 -3.77388392e-03 1.94602017e-03 -3.64205171e-03
      1.83453201e-03 -3.71690234e-03 1.70976913e-03 -2.78299791e-03
      1.15031993e-03 -1.10582367e-03 1.65843638e-03 -6.94304763e-04
      1.88903837e-03 -8.88269045e-04 2.11166870e-03 -1.11882051e-03
      2.23910436e-03 -2.36905180e-03 2.21263664e-03 -3.31103033e-03
      1.99000514e-03 -3.51029146e-03 1.95336575e-03 -3.43768951e-03</_>
    <_>
      -4.07424988e-03 3.13883967e-04 -4.46080370e-03 -2.94462894e-04
      -5.44639258e-03 2.13043793e-04 -4.96919500e-03 8.56361643e-04
      -4.39712545e-03 1.93101843e-03 -3.04454844e-03 2.54282891e-03
      -6.74826850e-04 2.06402666e-03 -3.67136890e-05 2.60932697e-03
      7.38870527e-04 2.39527551e-03 -2.61964917e-04 1.32816192e-03
      -9.22051026e-04 6.90233894e-04 -2.00759177e-03 6.53225521e-04
      -1.64618553e-03 5.05228993e-04 -2.47457903e-03 3.15678801e-04
      -3.34396539e-03 2.52279278e-04 -4.96130297e-03 4.89835686e-04
      -6.74563646e-03 1.73691462e-03 1.45986001e-03 1.01701892e-03
      3.56973824e-03 2.38517066e-03 4.02736105e-03 3.92225524e-03
      4.37648827e-03 4.78378311e-03 4.03386913e-03 6.44442299e-03
      -1.66880409e-03 4.50671185e-03 -2.62815109e-03 2.76484806e-03
      -3.03374324e-03 3.05918686e-04 -2.44897511e-03 -1.63673167e-03
      -3.52428015e-03 -6.68136752e-04 2.03640503e-03 5.19921887e-04
      2.88942968e-03 -9.11865383e-04 3.51242977e-03 -2.30683689e-03
      3.92307155e-03 -3.42016225e-03 1.25539955e-03 -1.73400599e-03
      2.11927318e-03 -1.93213206e-03 2.86908238e-03 -2.48469901e-03
      3.97148123e-03 -2.98397779e-03 4.58275154e-03 -3.12725338e-03
      1.59678853e-03 1.93651323e-03 1.56516675e-03 3.20160389e-03
      1.28367287e-03 2.96307891e-03 1.77411397e-03 1.62247277e-03
      1.92945183e-03 1.79290154e-03 2.47662887e-03 1.79290154e-03
      -1.58278027e-03 6.79116405e-04 -1.41776074e-03 1.01686118e-03
      -2.38070218e-03 7.87994708e-04 -2.32199114e-03 -9.61564481e-04
      -1.61404198e-03 -5.06645069e-04 -1.30539143e-03 2.51507794e-04
      7.58874885e-05 -3.06489551e-03 1.81493419e-03 -2.85374094e-03
      2.96329334e-03 -2.11051153e-03 2.96295295e-03 -2.12528650e-03
      3.29246814e-03 -1.70967740e-03 3.09156394e-03 -2.41555553e-03
      3.67399398e-03 -3.66547285e-03 2.98381620e-03 1.90646442e-05
      2.13759928e-03 7.69259874e-04 2.24300637e-03 8.88057286e-04
      2.36949930e-03 8.18809203e-04 1.29196234e-03 -1.06655620e-03
      8.69318843e-04 -2.73946789e-03 2.93613598e-03 -3.05013475e-03
      3.33493506e-03 -3.11330799e-03 3.06990952e-03 -2.60397978e-03
      3.67795909e-03 -3.04078194e-03 2.39697075e-03 1.06040842e-03
      2.39631091e-03 1.09230098e-03 2.18429393e-03 9.40679049e-04</_>
    <_>
      1.48003921e-02 -6.26668846e-03 8.35254136e-03 -6.60835439e-03
      4.56279516e-03 -8.49226862e-03 7.10567553e-03 -8.95659626e-03
      6.25967979e-03 -7.76770245e-03 4.32300381e-03 -9.85193904e-03
      1.06403949e-02 -1.19567830e-02 1.21139484e-02 -1.36869317e-02
      1.57398602e-03 -1.88539512e-02 -2.58629606e-03 -1.51833715e-02
      -7.55602727e-03 -8.89803562e-03 -1.94176857e-03 -5.77138783e-03
      -4.67229262e-03 -6.62272889e-03 2.16257502e-03 -7.34472834e-03
      5.61473193e-03 -6.26934273e-03 1.08803585e-02 -4.79704142e-03
      1.79579649e-02 -6.98693004e-03 2.40285881e-03 -3.30029777e-03
      -1.43444946e-03 -3.70873488e-03 8.27245705e-04 4.36477689e-03
      -1.80701539e-03 4.81655914e-03 -5.73729223e-04 2.58837687e-03
      -5.76044712e-03 -4.19965340e-03 -4.80856630e-04 2.00151862e-03
      -2.98488350e-03 1.14209054e-03 -1.81519354e-04 -3.57214129e-04
      2.41012033e-03 3.84980510e-03 -4.90669720e-03 -3.55122960e-03
      -1.15034869e-02 -1.71617046e-03 -1.48493657e-02 -2.63865362e-03
      -1.76089294e-02 -1.02096703e-03 -4.63496568e-03 1.34233094e-03
      -1.03774164e-02 7.72072643e-04 -1.88441686e-02 -2.66600656e-03
      -1.50168771e-02 2.58439715e-04 -1.59815140e-02 -2.38310848e-03
      2.76426971e-03 -9.71897878e-03 3.01549351e-03 -2.40207324e-03
      2.13251985e-03 -1.91869703e-03 -1.42176426e-03 -4.88519575e-03
      1.10514392e-03 -6.80008298e-03 1.65048835e-03 -6.46465691e-03
      4.58043723e-05 -5.74770430e-03 4.90365317e-03 -6.36261515e-03
      2.07459903e-03 -2.85399472e-03 2.68730707e-03 -9.10931174e-03
      1.28693704e-03 -6.79762475e-03 4.13243100e-03 -4.94067417e-03
      1.78171676e-02 2.37100255e-02 3.54313845e-04 1.75869409e-02
      -8.29340890e-03 1.24284662e-02 -1.46944467e-02 1.16572436e-02
      -1.20397266e-02 8.33510701e-03 -1.67055186e-02 1.18228430e-02
      -1.71911363e-02 1.07231634e-02 -1.29811028e-02 8.40154826e-04
      -4.40690015e-03 9.29620990e-04 -4.21610521e-03 -2.98187719e-03
      -2.60500959e-03 2.80452077e-03 9.34840739e-03 1.19954022e-02
      1.12140598e-02 1.96718015e-02 -6.89660618e-03 1.85078438e-02
      -9.73861292e-03 2.18311660e-02 -1.24287717e-02 1.65821686e-02
      -1.66014303e-02 7.41861481e-03 -6.25706930e-03 -5.41624054e-03
      -5.70034096e-03 -2.42269388e-03 -3.46600055e-03 1.16121443e-03</_>
    <_>
      -1.34619011e-03 -3.22165375e-04 -1.79907784e-03 -2.50051002e-04
      -2.88466248e-03 -5.24122501e-04 -4.28101281e-03 -1.14647344e-04
      -5.11888321e-03 -2.44031282e-04 -5.15088113e-03 -4.86994541e-04
      -4.17257193e-03 -9.21745144e-04 -3.19187343e-03 -1.43452815e-03
      -1.81317888e-03 -1.16053678e-03 -6.25729328e-04 -3.14068078e-04
      8.07856326e-04 8.55077960e-05 1.20742747e-03 4.65172721e-04
      1.30318350e-03 1.01389608e-03 8.02548020e-04 5.16376866e-04
      5.24936360e-04 5.08469937e-04 4.95973742e-04 3.75253760e-04
      4.74579108e-04 3.19654326e-04 -1.13855131e-04 1.04381924e-03
      -2.13092659e-04 9.99331707e-04 6.14601086e-05 1.13603112e-03
      3.30465904e-04 2.37406162e-03 -2.56535510e-04 2.87197949e-03
      1.29792176e-03 3.15819541e-03 1.23940571e-03 2.83488561e-03
      8.45374132e-04 2.51677725e-03 4.51342814e-04 2.39319098e-03
      2.55114806e-04 2.63094716e-03 2.30189558e-04 1.00999628e-03
      2.48551398e-04 7.56065187e-04 6.83445309e-04 4.56831040e-04
      5.63259295e-04 2.02899930e-04 4.41378128e-04 -4.82298550e-04
      4.96835506e-04 -3.15258949e-04 3.70289286e-04 -4.08846565e-04
      7.38900970e-04 -7.77092762e-04 6.39296079e-04 -5.63318026e-04
      -3.67785891e-04 1.03974703e-03 -2.42279828e-04 1.19444123e-03
      -1.66909842e-04 1.20540941e-03 -2.75091938e-04 8.25971481e-04
      -2.36959197e-04 1.02515263e-03 -1.19359232e-04 9.55104013e-04
      5.76437560e-05 1.27582753e-03 -9.81990434e-06 1.63690187e-03
      -3.50981340e-04 1.95005792e-03 -2.25473777e-04 1.52692199e-03
      -2.40210342e-04 9.81033896e-04 4.92612962e-05 8.96022189e-04
      -3.87539680e-04 -1.87271333e-03 7.79625960e-04 -9.62997030e-04
      7.41492840e-04 -4.00349585e-04 9.17134399e-04 -3.21058833e-05
      9.40448779e-04 -4.05895378e-04 6.44841930e-04 -1.49488007e-03
      1.15897635e-03 -2.54129618e-03 6.74172537e-04 -3.86419520e-03
      6.45656371e-04 -4.08554077e-03 4.67278674e-04 -4.01548995e-03
      3.76649463e-04 -4.01548995e-03 4.14782407e-04 -3.12556420e-03
      -2.15298583e-04 -1.79169583e-03 6.04794186e-04 -3.74224066e-04
      7.80435745e-04 -1.16749135e-04 9.02540807e-04 -6.18882594e-04
      1.45036925e-03 -2.47124839e-03 9.02540807e-04 -3.72786587e-03
      7.80435745e-04 -3.63945216e-03 7.41492840e-04 -3.60154547e-03</_>
    <_>
      -2.49405927e-03 -5.34071960e-03 -3.24877398e-03 -5.42951142e-03
      -5.31758182e-03 -4.07811394e-03 -6.21231599e-03 -1.74113666e-03
      -8.04561842e-03 -4.06728737e-04 -7.78584043e-03 3.07532377e-04
      -6.98758475e-03 1.74277916e-03 -5.03740320e-03 3.38732568e-03
      -2.16818089e-03 3.21989087e-03 3.83526029e-04 3.02209449e-03
      1.48460490e-03 1.43628113e-03 1.39990589e-03 2.15497785e-05
      1.88621780e-04 -3.64157604e-04 -2.88414187e-04 -2.11268058e-03
      -1.27216324e-03 -3.43310763e-03 -2.01021624e-03 -3.31348181e-03
      -1.90322404e-03 -3.63614317e-03 -4.67511825e-04 -2.23425915e-03
      1.12283090e-03 -4.05780505e-04 1.97547744e-03 2.93173734e-03
      1.96667924e-03 6.20905403e-03 1.08184002e-03 8.17606505e-03
      3.44810169e-03 8.51766579e-03 1.48927560e-03 6.20364258e-03
      3.32565360e-05 2.24059052e-03 -1.61874501e-04 -1.21328607e-03
      6.78150856e-04 -3.24998004e-03 7.83248397e-04 1.03947974e-03
      1.29376713e-03 -1.16468276e-04 1.26274512e-03 -9.14648408e-04
      1.38837704e-03 -2.23729666e-03 -1.46629114e-04 -2.89773382e-03
      1.09122880e-03 -2.55594961e-03 1.31046458e-03 -2.22620671e-03
      9.80247860e-04 -2.79075117e-03 2.00604857e-03 -3.11134430e-03
      -1.23893947e-03 1.77041467e-04 -4.24791157e-04 8.17778753e-04
      -6.50034810e-04 1.45509548e-03 9.55255309e-05 4.25848295e-04
      -5.85543981e-04 1.48632936e-03 -1.16365484e-03 6.69552304e-04
      7.81147333e-04 7.78192014e-04 3.98892531e-04 6.35387376e-04
      6.69406494e-04 -2.88188196e-04 1.18504069e-03 -2.13219528e-03
      1.00692455e-03 -9.51603142e-05 7.86435499e-04 6.47616689e-04
      -8.90376861e-04 -4.15008375e-03 1.24084356e-03 -1.52082532e-03
      1.54982158e-03 -9.11890413e-04 1.85719680e-03 -4.24539670e-04
      1.32326828e-03 -2.85422837e-04 1.69311918e-03 -2.52266997e-03
      1.59056019e-03 -4.40886663e-03 1.80942798e-03 -1.91481784e-03
      6.58001576e-04 -4.59928677e-04 5.15195949e-04 1.35637718e-04
      2.61651061e-04 2.49149307e-05 2.51184421e-04 -6.73537725e-04
      -5.50778816e-04 -2.93749268e-03 1.25130895e-03 -1.21631089e-03
      1.56800880e-03 -1.08775031e-03 1.35288248e-03 -1.21881685e-03
      2.35134503e-03 -3.29357944e-03 1.18716282e-03 5.98814040e-05
      8.67537397e-04 3.73662071e-04 9.19379178e-04 9.60331527e-04</_>
    <_>
      3.56757082e-03 -3.97968385e-03 3.21019208e-03 -4.05292585e-03
      2.75198417e-03 -4.27251728e-03 1.64085929e-03 -4.17968491e-03
      -3.36462894e-04 -4.04025847e-03 -2.21103220e-03 -3.72723909e-03
      -3.35075776e-03 -2.78647314e-03 -3.56623158e-03 -1.91881869e-03
      -2.82196305e-03 -1.38530519e-03 -8.56878469e-04 -3.57404788e-04
      4.73199150e-04 6.70845213e-04 2.05088523e-03 1.62690529e-04
      1.82847609e-03 -3.03668610e-04 3.02096643e-03 -3.91147973e-04
      3.11615015e-03 -1.20918127e-03 5.02810767e-03 -2.46337219e-03
      6.52194861e-03 -3.50602041e-03 -8.68616509e-04 -3.62742762e-03
      -7.08394451e-04 -2.84001464e-03 -1.31832238e-03 -2.77601968e-04
      -2.09961832e-03 2.37541436e-03 -2.23856769e-03 2.59727240e-03
      4.09408798e-03 2.94943061e-03 4.54870053e-03 3.28963436e-03
      4.26760083e-03 2.01102579e-03 4.74559609e-03 -7.91561906e-05
      6.12663291e-03 -1.67243904e-03 -6.90176443e-04 5.76358871e-04
      -1.80143421e-03 1.05970586e-03 -2.72785523e-03 1.34476437e-03
      -3.57438205e-03 1.10913150e-03 -1.42134377e-03 3.41111503e-04
      -1.82100933e-03 2.71131779e-04 -1.91740762e-03 9.30654001e-04
      -2.27107108e-03 9.25305707e-04 -2.05510482e-03 9.33412288e-04
      -1.25707698e-03 -1.92249625e-03 -1.43338065e-03 -1.74705533e-03
      -7.89363112e-04 -1.14945881e-03 -3.78581404e-04 -7.05549784e-04
      -1.61032507e-03 3.10224801e-04 -2.11093761e-03 -4.47234226e-04
      2.74945586e-03 5.24142932e-04 2.93687219e-03 -5.17422741e-04
      4.19494975e-03 -1.26729356e-04 4.99053299e-03 -5.37094369e-04
      4.02761577e-03 9.88265849e-04 2.69257976e-03 7.18900003e-04
      9.14377815e-05 -9.65757237e-04 -4.15331975e-04 1.05845975e-03
      -1.55954401e-03 2.18486786e-03 -1.95463304e-03 2.16682558e-03
      -1.77545403e-03 2.08157394e-03 -2.18858104e-03 1.50147837e-03
      -1.02164794e-03 -4.66229074e-04 -1.99382147e-03 -1.28535111e-03
      -1.88560237e-03 -1.18024426e-03 -2.50093406e-03 -1.53114786e-03
      -1.91638141e-03 -1.45124516e-03 -2.02539028e-04 -8.67608876e-04
      -1.62649332e-04 -1.16833580e-04 -1.97231048e-03 1.96599332e-03
      -1.99605804e-03 2.64355005e-03 -2.01685377e-03 2.84516369e-03
      -7.41281430e-04 -1.09974826e-04 -1.98888895e-03 -1.16315985e-03
      -1.92666834e-03 -8.08539218e-04 -1.86444342e-03 -1.43415807e-03</_>
    <_>
      1.53239956e-03 -1.53393822e-03 1.62783894e-03 -1.71284424e-03
      3.28168995e-03 -1.13129895e-03 4.19992022e-03 -9.25656204e-05
      6.05024397e-03 4.70734813e-04 5.23265591e-03 7.26606813e-04
      4.33524232e-03 3.03517235e-03 2.09793774e-03 5.52078709e-03
      4.66431462e-04 5.21966489e-03 -1.61162450e-03 3.30674369e-03
      -3.01453774e-03 1.15745876e-03 -2.88072624e-03 7.56549009e-04
      -1.88370689e-03 2.82422170e-05 -2.66656454e-04 9.68339504e-04
      -7.42360309e-04 1.06610660e-03 -7.22490484e-04 1.23489019e-03
      -1.73839580e-04 1.59186928e-03 -1.18989451e-03 -3.02156853e-03
      1.70238351e-03 -1.15173112e-03 2.10444327e-03 2.34409096e-03
      1.59016217e-03 4.07129107e-03 3.60444630e-03 3.78378108e-03
      2.25135800e-03 4.70377738e-03 1.58380566e-03 2.46295845e-03
      1.65269175e-03 -8.09364545e-04 2.97602173e-03 -4.51268489e-03
      5.60182752e-03 -5.25038270e-03 1.13209523e-03 1.90047571e-03
      1.05993473e-03 -1.17197887e-04 9.64796054e-04 -4.42999619e-04
      -5.18576475e-04 -2.93362141e-03 -4.71381965e-04 -3.50204040e-03
      -5.89791918e-04 -2.07641139e-03 -5.68484422e-04 -2.33549369e-03
      -4.80198250e-05 -2.14520423e-03 1.12095720e-03 -3.66373220e-03
      -4.96287772e-04 2.52512807e-04 9.98974661e-04 -5.08699042e-04
      1.28655951e-03 -5.67495124e-04 1.88105390e-03 1.76315196e-03
      7.67862191e-04 2.22381577e-03 -5.31785656e-04 1.77138101e-03
      1.71784498e-03 1.61678297e-03 2.31233868e-03 -1.21309992e-03
      3.70122795e-03 -2.95901252e-03 3.89966415e-03 -1.12229586e-03
      4.62556118e-03 1.49995286e-03 1.62965280e-03 3.04735359e-03
      -1.82933186e-03 -4.88101132e-03 -1.56327209e-03 -5.17723244e-03
      -5.59344131e-04 -4.85755410e-03 -2.05343124e-03 -4.42942511e-03
      -3.21641169e-03 -3.77671421e-03 -1.70345721e-03 -2.95081339e-03
      -1.53746060e-03 -2.79127038e-03 -2.42799614e-03 6.25360245e-03
      -4.63105831e-03 9.76073463e-03 -4.00875835e-03 9.87157878e-03
      -2.21820595e-03 8.56429618e-03 -3.15689389e-03 4.06867033e-03
      -1.75073207e-03 -4.31931205e-03 -5.64679969e-04 -7.15200230e-03
      -1.32456596e-03 -5.95399225e-03 -3.31155141e-03 -5.57191623e-03
      -1.77074003e-03 -1.14659360e-03 -3.37034767e-03 9.73809045e-03
      -2.92158662e-03 9.19258501e-03 -2.13942351e-03 9.43687279e-03</_>
    <_>
      3.04594985e-03 -2.43539223e-03 2.72236322e-03 -2.24722200e-03
      2.66364822e-03 -2.36555492e-03 2.90769967e-03 -2.65121739e-03
      2.92801880e-03 -2.79943412e-03 2.09500431e-03 -2.75848387e-03
      9.28086287e-04 -2.55073281e-03 5.46837509e-05 -2.25064927e-03
      -8.17777996e-04 -2.41264375e-03 -1.20880618e-03 -2.12997221e-03
      -8.88209383e-04 -1.70354580e-03 -8.36754742e-04 -1.48482691e-03
      -5.80606400e-04 -1.62385299e-03 -1.06550775e-04 -1.39712787e-03
      3.77596269e-04 -1.06628216e-03 1.02552061e-03 -7.27427308e-04
      1.83201057e-03 -1.17590127e-03 6.29841059e-04 -1.92492083e-03
      5.53330523e-04 -1.03943073e-03 2.18367150e-05 -2.64603179e-04
      -4.87367157e-04 -1.01544378e-04 -5.87188348e-04 -5.54340833e-04
      4.53575230e-05 -1.10087320e-04 4.10835841e-04 5.75792285e-07
      5.37055254e-04 -4.35362890e-04 6.50874630e-04 -1.25110557e-03
      1.38886273e-03 -1.95022731e-03 -6.86705927e-04 3.63061845e-04
      -1.45258335e-03 7.58423179e-04 -1.96982897e-03 9.26498731e-04
      -2.30373023e-03 1.32185931e-03 -1.05551095e-03 9.04155197e-04
      -1.40116259e-03 9.67361673e-04 -1.79876143e-03 1.10813009e-03
      -1.98366214e-03 1.24961929e-03 -1.94252259e-03 1.14247389e-03
      -1.18621523e-04 -1.02116144e-03 -2.62606074e-04 -1.20170519e-03
      -9.17296202e-05 -1.12319854e-03 1.38587066e-05 -2.95671314e-04
      -4.13657457e-04 -2.09874619e-04 -5.42780675e-04 -2.35491563e-04
      3.52310861e-04 7.31008331e-05 3.09120864e-04 -8.51255434e-04
      9.12916148e-04 -1.17110019e-03 9.94970556e-04 -6.08445087e-04
      1.02806778e-03 4.37449162e-05 2.01258910e-04 4.42096265e-04
      8.08021505e-05 8.48188065e-04 -1.15785515e-03 1.30098627e-03
      -1.66207179e-03 1.36699167e-03 -1.89986185e-03 1.25912775e-03
      -2.28642998e-03 1.27016159e-03 -2.30921106e-03 1.33461074e-03
      -2.37593520e-03 1.44300133e-03 -1.98842585e-03 1.52527983e-03
      -2.03987909e-03 2.02495512e-03 -1.80303038e-03 1.89574528e-03
      -1.43905880e-03 1.79891579e-03 -8.03443487e-04 1.62429700e-03
      -3.73239280e-04 1.14971038e-03 -1.79252715e-03 1.73099828e-03
      -2.00469862e-03 1.60481385e-03 -2.41688453e-03 1.55993353e-03
      -2.24903086e-03 1.42978027e-03 -2.06341455e-03 1.30298024e-03
      -1.89986185e-03 1.49663910e-03 -1.58783433e-03 1.37846288e-03</_>
    <_>
      3.36321490e-03 -3.17263912e-04 3.56603530e-03 -4.71685380e-05
      3.37078702e-03 -4.97417233e-04 3.03570903e-03 -1.07855781e-03
      2.27343244e-03 -1.86832505e-03 1.04615104e-03 -2.66837142e-03
      -5.38104287e-05 -2.90210336e-03 -6.93264126e-04 -3.41301179e-03
      -1.48627232e-03 -3.18907620e-03 -9.85970721e-04 -2.67267297e-03
      -9.33363845e-05 -1.50611426e-03 7.51206418e-04 -9.72357171e-04
      9.27983259e-04 -3.61793471e-04 2.08177790e-03 -2.35476648e-04
      2.62377667e-03 1.68262719e-04 4.02595662e-03 2.77137169e-05
      5.54641802e-03 -8.46579962e-04 -1.31204911e-03 -7.81854149e-04
      -2.31007650e-03 -1.56098814e-03 -2.33478099e-03 -1.75288739e-03
      -2.50068912e-03 -1.74467429e-03 -2.18418241e-03 -2.16142437e-03
      8.48565105e-05 -1.55884202e-03 1.52514724e-03 -5.51488018e-04
      2.04825378e-03 8.48962751e-04 2.45225057e-03 1.72423525e-03
      3.47888726e-03 1.22979993e-03 -1.74814207e-03 4.09306289e-04
      -2.42510322e-03 1.29099400e-03 -3.28373024e-03 1.77348999e-03
      -3.90459923e-03 2.80872872e-03 -1.97025668e-03 1.60647871e-03
      -2.43043271e-03 1.77260034e-03 -2.97336280e-03 1.80749747e-03
      -2.89926725e-03 2.08526873e-03 -3.21026216e-03 1.84458646e-03
      -1.30580366e-03 -1.13507430e-03 -1.35772466e-03 -9.87703912e-04
      -1.05055026e-03 -8.30309582e-04 -1.16341701e-03 -4.63496341e-04
      -1.38577225e-03 -2.79146247e-04 -1.71698094e-03 -5.06650133e-04
      8.78389284e-04 2.86223978e-04 1.28977839e-03 -3.63139916e-05
      1.86492177e-03 5.68068470e-04 1.88737956e-03 1.08117133e-03
      1.44400925e-03 1.03886565e-03 1.12305651e-03 6.86022511e-04
      -7.06135907e-05 1.00902654e-03 -1.05658674e-03 1.60293910e-03
      -2.15901691e-03 1.32563477e-03 -2.09869747e-03 1.37079053e-03
      -2.14723335e-03 1.21678028e-03 -2.40509654e-03 1.21382088e-03
      -2.07222765e-03 7.78753078e-04 -2.18288694e-03 -1.74946815e-03
      -1.63882261e-03 -1.92395283e-03 -1.79018592e-03 -1.62137556e-03
      -1.93508249e-03 -1.38361601e-03 -6.85515464e-04 -6.38582918e-04
      -3.21939995e-04 9.84991086e-04 -2.30615423e-03 2.05663545e-03
      -2.30440265e-03 2.23422144e-03 -1.94733287e-03 1.66367413e-03
      -2.32377439e-03 3.80076177e-04 -1.93090201e-03 -1.97218475e-03
      -1.72762666e-03 -2.03450490e-03 -2.23363377e-03 -1.79674395e-03</_></support_vectors>
  <uncompressed_sv_total>95</uncompressed_sv_total>
  <uncompressed_support_vectors>
    <_>
      -1.95348835e+01 8.23255844e+01 -1.25581398e+01 1.26976746e+02 0.
      1.70232559e+02 1.39534883e+01 2.10697678e+02 3.76744194e+01
      2.46976746e+02 6.69767456e+01 2.77674408e+02 1.01860466e+02
      3.01395355e+02 1.39534882e+02 3.16744171e+02 1.77209305e+02
      3.19534882e+02 2.09302322e+02 3.09767456e+02 2.35813950e+02
      2.86046509e+02 2.55348831e+02 2.55348831e+02 2.72093018e+02
      2.20465118e+02 2.83255829e+02 1.81395355e+02 2.90232544e+02
      1.42325577e+02 2.94418610e+02 1.00465118e+02 2.93023254e+02
      5.86046524e+01 1.53488369e+01 4.32558136e+01 3.48837204e+01
      2.37209301e+01 6.41860428e+01 1.81395340e+01 9.48837204e+01
      2.23255806e+01 1.21395348e+02 3.34883728e+01 1.67441864e+02
      2.79069767e+01 1.91162796e+02 1.39534883e+01 2.19069763e+02
      6.97674417e+00 2.46976746e+02 9.76744175e+00 2.65116272e+02
      2.79069767e+01 1.50697678e+02 7.11627884e+01 1.54883728e+02
      1.00465118e+02 1.59069763e+02 1.31162796e+02 1.63255814e+02
      1.61860458e+02 1.29767441e+02 1.84186050e+02 1.45116272e+02
      1.86976746e+02 1.60465118e+02 1.89767441e+02 1.75813950e+02
      1.85581390e+02 1.88372086e+02 180. 4.88372078e+01 7.95348816e+01
      6.55813980e+01 6.97674408e+01 8.51162796e+01 6.97674408e+01
      1.03255814e+02 8.23255844e+01 8.51162796e+01 8.79069748e+01
      6.55813980e+01 8.79069748e+01 1.86976746e+02 7.67441864e+01
      2.05116272e+02 6.13953476e+01 2.24651169e+02 5.86046524e+01
      2.42790695e+02 6.69767456e+01 2.28837204e+02 7.81395340e+01
      2.07906982e+02 7.95348816e+01 1.13023254e+02 2.42790695e+02
      1.32558136e+02 2.30232559e+02 1.50697678e+02 2.21860458e+02
      1.63255814e+02 2.24651169e+02 1.74418610e+02 2.20465118e+02
      1.91162796e+02 2.26046509e+02 2.07906982e+02 2.33023254e+02
      1.95348831e+02 2.53953491e+02 180. 2.63720917e+02 1.67441864e+02
      2.66511627e+02 1.53488373e+02 2.66511627e+02 1.33953491e+02
      2.59534882e+02 1.22790695e+02 2.41395355e+02 1.52093018e+02
      2.37209305e+02 1.64651169e+02 2.38604645e+02 1.75813950e+02
      2.34418610e+02 1.99534882e+02 2.34418610e+02 1.77209305e+02
      2.41395355e+02 1.64651169e+02 2.44186050e+02 1.52093018e+02
      2.44186050e+02</_>
    <_>
      -8.37209320e+00 8.23255844e+01 -1.39534879e+00 1.25581398e+02
      9.76744175e+00 1.68837204e+02 2.23255806e+01 2.07906982e+02
      4.18604660e+01 2.44186050e+02 6.83720932e+01 2.74883728e+02
      1.01860466e+02 2.98604645e+02 1.36744186e+02 3.16744171e+02
      1.73023254e+02 3.19534882e+02 2.06511627e+02 3.09767456e+02
      2.33023254e+02 2.86046509e+02 2.55348831e+02 2.56744171e+02
      2.70697662e+02 2.23255814e+02 2.81860474e+02 1.85581390e+02
      2.88837219e+02 1.46511627e+02 2.93023254e+02 1.04651161e+02
      2.93023254e+02 6.27906990e+01 1.95348835e+01 4.60465126e+01
      3.90697670e+01 2.65116272e+01 6.83720932e+01 2.23255806e+01
      9.62790680e+01 2.65116272e+01 1.22790695e+02 3.90697670e+01
      1.68837204e+02 3.20930214e+01 1.93953491e+02 1.81395340e+01
      2.21860458e+02 9.76744175e+00 2.49767441e+02 1.25581398e+01
      2.67906982e+02 3.06976738e+01 1.52093018e+02 7.25581360e+01
      1.54883728e+02 1.03255814e+02 1.59069763e+02 1.32558136e+02
      1.61860458e+02 1.63255814e+02 1.29767441e+02 1.85581390e+02
      1.45116272e+02 1.88372086e+02 1.60465118e+02 1.91162796e+02
      1.74418610e+02 1.86976746e+02 1.86976746e+02 1.81395355e+02
      5.16279068e+01 8.09302292e+01 6.83720932e+01 6.97674408e+01
      8.93023224e+01 6.97674408e+01 1.07441864e+02 8.37209320e+01
      8.93023224e+01 8.93023224e+01 6.83720932e+01 8.93023224e+01
      1.88372086e+02 7.81395340e+01 2.06511627e+02 6.13953476e+01
      2.27441864e+02 60. 2.44186050e+02 6.83720932e+01 2.30232559e+02
      7.95348816e+01 2.09302322e+02 8.23255844e+01 1.14418602e+02
      2.42790695e+02 1.32558136e+02 2.30232559e+02 1.49302322e+02
      2.23255814e+02 1.61860458e+02 2.26046509e+02 1.74418610e+02
      2.20465118e+02 1.91162796e+02 2.26046509e+02 2.07906982e+02
      2.34418610e+02 1.93953491e+02 2.55348831e+02 1.78604645e+02
      2.63720917e+02 1.66046509e+02 2.66511627e+02 1.52093018e+02
      2.66511627e+02 1.33953491e+02 2.59534882e+02 1.24186043e+02
      2.42790695e+02 1.50697678e+02 2.38604645e+02 1.63255814e+02 240.
      1.75813950e+02 2.35813950e+02 1.99534882e+02 2.35813950e+02
      1.75813950e+02 2.41395355e+02 1.63255814e+02 2.45581390e+02
      1.50697678e+02 2.44186050e+02</_>
    <_>
      -3.62790680e+01 8.93023224e+01 -2.65116272e+01 1.36744186e+02
      -1.11627903e+01 1.81395355e+02 5.58139515e+00 2.23255814e+02
      3.06976738e+01 2.59534882e+02 6.41860428e+01 2.87441864e+02
      1.04651161e+02 3.06976746e+02 1.46511627e+02 3.18139526e+02
      1.84186050e+02 3.18139526e+02 2.14883728e+02 3.05581390e+02
      2.34418610e+02 2.79069763e+02 2.48372086e+02 2.46976746e+02
      2.60930237e+02 2.10697678e+02 2.70697662e+02 1.74418610e+02
      2.79069763e+02 1.36744186e+02 2.81860474e+02 9.76744156e+01
      2.77674408e+02 5.86046524e+01 1.25581398e+01 4.74418602e+01
      3.48837204e+01 2.65116272e+01 6.55813980e+01 1.95348835e+01
      9.76744156e+01 2.09302330e+01 1.26976746e+02 3.06976738e+01
      1.73023254e+02 2.51162796e+01 1.96744186e+02 1.25581398e+01
      2.21860458e+02 6.97674417e+00 2.46976746e+02 8.37209320e+00
      2.62325592e+02 2.65116272e+01 1.59069763e+02 6.69767456e+01
      1.64651169e+02 9.90697708e+01 1.71627914e+02 1.28372086e+02
      1.78604645e+02 1.59069763e+02 1.40930237e+02 1.84186050e+02
      1.57674423e+02 1.85581390e+02 1.74418610e+02 1.86976746e+02
      1.86976746e+02 1.81395355e+02 1.98139542e+02 1.75813950e+02
      4.74418602e+01 7.95348816e+01 6.55813980e+01 6.97674408e+01
      8.65116272e+01 6.83720932e+01 1.04651161e+02 7.95348816e+01
      8.65116272e+01 8.65116272e+01 6.55813980e+01 8.79069748e+01
      1.89767441e+02 7.39534912e+01 2.05116272e+02 5.86046524e+01
      2.24651169e+02 5.72093010e+01 2.41395355e+02 6.27906990e+01
      2.28837204e+02 7.39534912e+01 2.09302322e+02 7.67441864e+01
      1.14418602e+02 2.41395355e+02 1.39534882e+02 2.28837204e+02
      1.60465118e+02 2.20465118e+02 1.74418610e+02 2.23255814e+02
      1.86976746e+02 2.17674423e+02 2.00930237e+02 2.21860458e+02
      2.16279068e+02 2.28837204e+02 2.05116272e+02 2.49767441e+02
      1.92558136e+02 2.59534882e+02 1.78604645e+02 2.63720917e+02
      1.63255814e+02 2.63720917e+02 1.40930237e+02 2.59534882e+02
      1.24186043e+02 2.41395355e+02 1.61860458e+02 2.37209305e+02
      1.75813950e+02 2.35813950e+02 1.88372086e+02 2.33023254e+02
      2.06511627e+02 2.30232559e+02 1.88372086e+02 2.37209305e+02
      1.75813950e+02 2.41395355e+02 1.61860458e+02 2.42790695e+02</_>
    <_>
      -4.18604660e+01 8.65116272e+01 -3.34883728e+01 1.35348831e+02
      -1.81395340e+01 1.81395355e+02 -1.39534879e+00 2.23255814e+02
      2.51162796e+01 2.59534882e+02 5.86046524e+01 2.88837219e+02
      9.90697708e+01 3.09767456e+02 1.39534882e+02 3.22325592e+02
      1.77209305e+02 3.20930237e+02 2.09302322e+02 3.08372101e+02
      2.27441864e+02 2.79069763e+02 240. 2.45581390e+02 2.53953491e+02
      2.10697678e+02 2.63720917e+02 1.74418610e+02 2.72093018e+02
      1.39534882e+02 2.74883728e+02 1.00465118e+02 2.72093018e+02
      6.13953476e+01 9.76744175e+00 4.60465126e+01 3.34883728e+01
      2.51162796e+01 6.41860428e+01 1.81395340e+01 9.62790680e+01
      2.09302330e+01 1.25581398e+02 3.20930214e+01 1.74418610e+02
      2.79069767e+01 1.95348831e+02 1.53488369e+01 2.20465118e+02
      9.76744175e+00 2.44186050e+02 1.25581398e+01 2.58139526e+02
      2.79069767e+01 1.57674423e+02 6.83720932e+01 1.63255814e+02
      9.90697708e+01 1.70232559e+02 1.28372086e+02 1.77209305e+02
      1.59069763e+02 1.36744186e+02 1.82790695e+02 1.53488373e+02
      1.84186050e+02 1.71627914e+02 1.86976746e+02 1.85581390e+02
      1.81395355e+02 1.96744186e+02 1.74418610e+02 4.46511612e+01
      7.81395340e+01 6.41860428e+01 6.97674408e+01 8.51162796e+01
      6.83720932e+01 1.03255814e+02 7.95348816e+01 8.51162796e+01
      8.51162796e+01 6.41860428e+01 8.51162796e+01 1.88372086e+02
      7.39534912e+01 2.03720932e+02 60. 2.23255814e+02 5.86046524e+01
      2.38604645e+02 6.41860428e+01 2.26046509e+02 7.53488388e+01
      2.06511627e+02 7.67441864e+01 1.08837212e+02 240. 1.33953491e+02
      2.28837204e+02 1.56279068e+02 2.21860458e+02 1.70232559e+02
      2.24651169e+02 1.82790695e+02 2.19069763e+02 1.96744186e+02
      2.23255814e+02 2.10697678e+02 2.30232559e+02 1.99534882e+02
      2.51162796e+02 1.86976746e+02 2.62325592e+02 1.73023254e+02
      2.66511627e+02 1.59069763e+02 2.66511627e+02 1.33953491e+02
      2.60930237e+02 1.18604652e+02 240. 1.57674423e+02 2.35813950e+02
      1.71627914e+02 2.35813950e+02 1.82790695e+02 2.31627914e+02
      2.02325577e+02 2.31627914e+02 1.84186050e+02 240. 1.71627914e+02
      2.44186050e+02 1.57674423e+02 2.45581390e+02</_>
    <_>
      -2.51162796e+01 9.34883728e+01 -1.67441864e+01 1.39534882e+02
      -4.18604660e+00 1.85581390e+02 1.11627903e+01 2.27441864e+02
      3.48837204e+01 2.63720917e+02 6.97674408e+01 2.93023254e+02
      1.08837212e+02 3.12558136e+02 1.50697678e+02 3.25116272e+02
      1.88372086e+02 3.23720917e+02 2.19069763e+02 3.12558136e+02
      2.38604645e+02 2.83255829e+02 2.52558136e+02 2.49767441e+02
      2.65116272e+02 2.13488373e+02 2.74883728e+02 1.77209305e+02
      2.81860474e+02 1.39534882e+02 2.84651154e+02 1.01860466e+02
      2.81860474e+02 6.41860428e+01 2.51162796e+01 4.60465126e+01
      4.88372078e+01 2.65116272e+01 7.95348816e+01 1.81395340e+01
      1.10232559e+02 2.09302330e+01 1.38139542e+02 3.20930214e+01
      1.89767441e+02 2.93023262e+01 2.10697678e+02 1.67441864e+01
      2.34418610e+02 1.25581398e+01 2.56744171e+02 1.53488369e+01
      2.70697662e+02 3.06976738e+01 1.70232559e+02 6.97674408e+01
      1.77209305e+02 1.00465118e+02 1.84186050e+02 1.31162796e+02
      1.89767441e+02 1.61860458e+02 1.50697678e+02 1.85581390e+02
      1.67441864e+02 1.88372086e+02 1.82790695e+02 1.89767441e+02
      1.95348831e+02 1.85581390e+02 2.06511627e+02 180. 60.
      7.95348816e+01 7.81395340e+01 6.97674408e+01 9.76744156e+01
      6.97674408e+01 1.15813957e+02 8.23255844e+01 9.76744156e+01
      8.79069748e+01 7.81395340e+01 8.79069748e+01 2.00930237e+02
      7.67441864e+01 2.16279068e+02 6.27906990e+01 2.35813950e+02
      6.13953476e+01 2.49767441e+02 6.83720932e+01 2.38604645e+02
      7.81395340e+01 2.20465118e+02 8.09302292e+01 1.22790695e+02
      2.45581390e+02 1.47906982e+02 2.33023254e+02 1.70232559e+02
      2.24651169e+02 1.82790695e+02 2.27441864e+02 1.93953491e+02
      2.23255814e+02 2.07906982e+02 2.27441864e+02 2.20465118e+02
      2.35813950e+02 2.10697678e+02 2.55348831e+02 1.98139542e+02
      2.65116272e+02 1.84186050e+02 2.69302338e+02 1.70232559e+02
      2.69302338e+02 1.47906982e+02 2.65116272e+02 1.31162796e+02
      2.45581390e+02 1.70232559e+02 240. 1.82790695e+02 240.
      1.95348831e+02 2.37209305e+02 2.12093018e+02 2.37209305e+02
      1.95348831e+02 2.44186050e+02 1.82790695e+02 2.46976746e+02
      1.70232559e+02 2.48372086e+02</_>
    <_>
      -4.04651146e+01 8.37209320e+01 -3.20930214e+01 1.31162796e+02
      -1.81395340e+01 1.75813950e+02 -2.79069757e+00 2.19069763e+02
      2.09302330e+01 2.56744171e+02 5.44186058e+01 2.86046509e+02
      9.34883728e+01 3.08372101e+02 1.33953491e+02 3.23720917e+02
      1.71627914e+02 3.23720917e+02 2.03720932e+02 3.11162781e+02
      2.24651169e+02 2.80465118e+02 2.38604645e+02 2.45581390e+02
      2.49767441e+02 2.10697678e+02 2.60930237e+02 1.74418610e+02
      2.69302338e+02 1.36744186e+02 2.72093018e+02 9.76744156e+01
      2.67906982e+02 5.86046524e+01 5.58139515e+00 4.60465126e+01
      2.93023262e+01 2.79069767e+01 60. 2.09302330e+01 9.06976776e+01
      2.51162796e+01 120. 3.48837204e+01 1.71627914e+02 3.20930214e+01
      1.92558136e+02 1.95348835e+01 2.17674423e+02 1.25581398e+01
      2.41395355e+02 1.39534883e+01 2.56744171e+02 2.93023262e+01
      1.52093018e+02 7.11627884e+01 1.57674423e+02 1.03255814e+02
      1.64651169e+02 1.33953491e+02 1.70232559e+02 1.64651169e+02
      1.31162796e+02 1.88372086e+02 1.47906982e+02 1.89767441e+02
      1.64651169e+02 1.92558136e+02 1.77209305e+02 1.88372086e+02
      1.89767441e+02 1.81395355e+02 4.18604660e+01 8.09302292e+01 60.
      7.11627884e+01 7.95348816e+01 7.11627884e+01 9.90697708e+01
      8.23255844e+01 7.95348816e+01 8.79069748e+01 60. 8.79069748e+01
      1.84186050e+02 7.81395340e+01 1.99534882e+02 6.41860428e+01
      2.19069763e+02 6.13953476e+01 2.35813950e+02 6.83720932e+01
      2.23255814e+02 7.95348816e+01 2.02325577e+02 8.09302292e+01
      1.04651161e+02 2.44186050e+02 1.28372086e+02 2.34418610e+02
      1.50697678e+02 2.27441864e+02 1.63255814e+02 2.28837204e+02
      1.74418610e+02 2.24651169e+02 1.88372086e+02 2.28837204e+02
      2.02325577e+02 2.35813950e+02 1.91162796e+02 2.56744171e+02
      1.78604645e+02 2.66511627e+02 1.66046509e+02 2.69302338e+02
      1.52093018e+02 2.70697662e+02 1.28372086e+02 2.65116272e+02
      1.13023254e+02 2.44186050e+02 1.50697678e+02 240. 1.64651169e+02
      240. 1.75813950e+02 2.37209305e+02 1.93953491e+02 2.37209305e+02
      1.75813950e+02 2.44186050e+02 1.64651169e+02 2.48372086e+02
      1.50697678e+02 2.48372086e+02</_>
    <_>
      -4.04651146e+01 8.23255844e+01 -3.06976738e+01 1.29767441e+02
      -1.67441864e+01 1.74418610e+02 0. 2.16279068e+02 2.51162796e+01
      2.51162796e+02 60. 2.80465118e+02 9.90697708e+01 2.98604645e+02
      1.40930237e+02 3.11162781e+02 180. 3.09767456e+02 2.10697678e+02
      2.97209290e+02 2.27441864e+02 2.66511627e+02 2.41395355e+02
      2.34418610e+02 2.52558136e+02 1.99534882e+02 2.62325592e+02
      1.61860458e+02 2.67906982e+02 1.26976746e+02 2.70697662e+02
      8.93023224e+01 2.66511627e+02 5.16279068e+01 1.39534883e+01
      4.04651146e+01 3.76744194e+01 2.23255806e+01 6.69767456e+01
      1.67441864e+01 9.62790680e+01 1.81395340e+01 1.25581398e+02
      2.79069767e+01 1.75813950e+02 2.37209301e+01 1.95348831e+02
      9.76744175e+00 2.17674423e+02 1.39534879e+00 240. 1.39534879e+00
      2.55348831e+02 1.53488369e+01 1.57674423e+02 5.86046524e+01
      1.63255814e+02 8.79069748e+01 1.70232559e+02 1.15813957e+02
      1.77209305e+02 1.45116272e+02 1.39534882e+02 1.70232559e+02
      1.54883728e+02 1.73023254e+02 1.71627914e+02 1.74418610e+02
      1.84186050e+02 1.70232559e+02 1.93953491e+02 1.63255814e+02
      4.74418602e+01 7.11627884e+01 6.55813980e+01 60. 8.51162796e+01
      60. 1.03255814e+02 7.11627884e+01 8.51162796e+01 7.67441864e+01
      6.55813980e+01 7.81395340e+01 1.86976746e+02 6.41860428e+01
      2.02325577e+02 4.88372078e+01 2.21860458e+02 4.60465126e+01
      2.35813950e+02 5.30232544e+01 2.24651169e+02 6.41860428e+01
      2.06511627e+02 6.69767456e+01 1.10232559e+02 2.30232559e+02
      1.35348831e+02 2.16279068e+02 1.57674423e+02 2.07906982e+02
      1.71627914e+02 2.10697678e+02 1.82790695e+02 2.05116272e+02
      1.96744186e+02 2.09302322e+02 2.10697678e+02 2.17674423e+02
      1.99534882e+02 2.38604645e+02 1.88372086e+02 2.48372086e+02
      1.75813950e+02 2.52558136e+02 1.60465118e+02 2.52558136e+02
      1.36744186e+02 2.48372086e+02 120. 2.30232559e+02 1.59069763e+02
      2.23255814e+02 1.73023254e+02 2.21860458e+02 1.84186050e+02
      2.19069763e+02 2.00930237e+02 2.20465118e+02 1.85581390e+02
      2.27441864e+02 1.73023254e+02 2.31627914e+02 1.59069763e+02
      2.31627914e+02</_>
    <_>
      -4.53488388e+01 8.48837204e+01 -3.83720932e+01 1.31395355e+02
      -2.79069767e+01 1.76744186e+02 -1.16279068e+01 2.19767441e+02
      1.74418602e+01 2.54651169e+02 5.69767456e+01 2.81395355e+02 100.
      300. 1.45348831e+02 3.12790710e+02 1.83720932e+02 3.10465118e+02
      2.12790695e+02 2.94186035e+02 2.26744186e+02 2.61627899e+02
      2.38372086e+02 2.26744186e+02 2.45348831e+02 1.90697678e+02 250.
      1.55813950e+02 2.53488373e+02 1.23255814e+02 2.52325577e+02
      8.83720932e+01 2.46511627e+02 5.46511612e+01 1.97674427e+01
      5.34883728e+01 4.30232544e+01 3.60465126e+01 7.20930252e+01
      2.79069767e+01 1.02325584e+02 2.79069767e+01 1.30232559e+02
      3.60465126e+01 1.72093018e+02 3.37209320e+01 1.89534882e+02
      2.32558136e+01 2.09302322e+02 1.74418602e+01 2.27906982e+02
      1.74418602e+01 2.39534882e+02 3.02325573e+01 1.58139542e+02
      6.74418640e+01 1.65116272e+02 9.41860428e+01 1.73255814e+02
      1.20930229e+02 1.81395355e+02 1.47674423e+02 1.41860458e+02
      1.69767441e+02 1.58139542e+02 1.70930237e+02 1.74418610e+02
      1.74418610e+02 1.86046509e+02 1.67441864e+02 1.95348831e+02
      1.60465118e+02 5.58139534e+01 8.02325592e+01 7.20930252e+01
      7.32558136e+01 9.06976776e+01 7.09302292e+01 1.05813957e+02
      7.90697708e+01 9.06976776e+01 8.48837204e+01 7.32558136e+01
      8.60465088e+01 1.81395355e+02 7.20930252e+01 1.94186050e+02
      6.27906990e+01 2.10465118e+02 6.04651146e+01 2.23255814e+02
      6.39534874e+01 2.13953491e+02 7.32558136e+01 1.97674423e+02
      7.55813980e+01 1.10465118e+02 2.19767441e+02 1.37209305e+02
      2.11627914e+02 1.60465118e+02 2.04651169e+02 1.73255814e+02
      2.05813950e+02 1.83720932e+02 200. 1.95348831e+02 2.02325577e+02
      2.06976746e+02 2.06976746e+02 1.98837204e+02 2.25581390e+02
      1.88372086e+02 2.37209305e+02 1.76744186e+02 2.40697678e+02
      1.62790695e+02 2.41860458e+02 1.38372086e+02 2.38372086e+02
      1.19767441e+02 2.20930237e+02 1.61627914e+02 2.16279068e+02
      1.74418610e+02 2.16279068e+02 1.84883728e+02 2.11627914e+02 200.
      2.08139542e+02 1.84883728e+02 2.18604645e+02 1.74418610e+02
      2.23255814e+02 1.61627914e+02 2.24418610e+02</_>
    <_>
      -4.30232544e+01 8.60465088e+01 -3.48837204e+01 1.30232559e+02
      -2.44186039e+01 1.74418610e+02 -8.13953495e+00 2.15116272e+02
      1.97674427e+01 250. 5.81395340e+01 2.76744171e+02 1.01162788e+02
      2.94186035e+02 1.45348831e+02 3.04651154e+02 1.82558136e+02
      3.02325592e+02 2.10465118e+02 2.87209290e+02 2.25581390e+02
      2.56976746e+02 2.36046509e+02 2.23255814e+02 2.43023254e+02
      1.88372086e+02 2.48837204e+02 1.54651169e+02 2.53488373e+02
      1.22093025e+02 2.53488373e+02 8.83720932e+01 2.46511627e+02
      5.58139534e+01 2.09302330e+01 5.34883728e+01 4.30232544e+01
      3.48837204e+01 7.20930252e+01 2.67441864e+01 1.01162788e+02
      2.79069767e+01 1.27906975e+02 3.60465126e+01 1.70930237e+02
      3.37209320e+01 1.88372086e+02 2.32558136e+01 2.06976746e+02
      1.62790699e+01 2.26744186e+02 1.74418602e+01 2.38372086e+02
      3.02325573e+01 1.56976746e+02 6.86046524e+01 1.63953491e+02
      9.53488388e+01 1.72093018e+02 1.20930229e+02 1.79069763e+02
      1.48837204e+02 1.41860458e+02 1.70930237e+02 1.58139542e+02
      1.72093018e+02 1.73255814e+02 1.73255814e+02 1.83720932e+02
      1.68604645e+02 1.91860458e+02 1.61627914e+02 5.58139534e+01
      8.02325592e+01 7.20930252e+01 7.20930252e+01 8.95348816e+01
      6.97674408e+01 1.04651161e+02 7.90697708e+01 8.95348816e+01
      8.48837204e+01 7.20930252e+01 8.60465088e+01 1.80232559e+02
      7.20930252e+01 1.94186050e+02 6.16279068e+01 2.10465118e+02
      5.93023262e+01 2.23255814e+02 6.39534874e+01 2.12790695e+02
      7.32558136e+01 1.96511627e+02 7.55813980e+01 1.12790695e+02
      2.19767441e+02 1.38372086e+02 2.10465118e+02 1.60465118e+02
      2.03488373e+02 1.72093018e+02 2.04651169e+02 1.81395355e+02 200.
      1.91860458e+02 2.02325577e+02 2.02325577e+02 2.06976746e+02
      1.95348831e+02 2.26744186e+02 1.86046509e+02 2.36046509e+02
      1.75581390e+02 2.39534882e+02 1.62790695e+02 2.41860458e+02
      1.39534882e+02 2.37209305e+02 1.22093025e+02 2.20930237e+02
      1.61627914e+02 2.16279068e+02 1.73255814e+02 2.15116272e+02
      1.82558136e+02 2.11627914e+02 1.96511627e+02 2.09302322e+02
      1.82558136e+02 2.18604645e+02 1.73255814e+02 2.23255814e+02
      1.61627914e+02 2.23255814e+02</_>
    <_>
      -4.41860466e+01 8.37209320e+01 -3.60465126e+01 1.30232559e+02
      -2.55813961e+01 1.75581390e+02 -9.30232525e+00 2.17441864e+02
      1.86046505e+01 2.52325577e+02 5.81395340e+01 2.79069763e+02
      1.02325584e+02 2.96511627e+02 1.46511627e+02 3.06976746e+02
      1.84883728e+02 3.03488373e+02 2.12790695e+02 2.88372101e+02
      2.27906982e+02 2.56976746e+02 2.37209305e+02 2.23255814e+02
      2.44186050e+02 1.88372086e+02 250. 1.53488373e+02 2.53488373e+02
      1.20930229e+02 2.51162796e+02 8.72093048e+01 2.45348831e+02
      5.46511612e+01 2.09302330e+01 5.34883728e+01 4.30232544e+01
      3.48837204e+01 7.09302292e+01 2.55813961e+01 1.01162788e+02
      2.67441864e+01 1.27906975e+02 3.48837204e+01 1.68604645e+02
      3.25581398e+01 1.86046509e+02 2.20930233e+01 2.05813950e+02
      1.62790699e+01 2.23255814e+02 1.74418602e+01 2.34883728e+02
      3.02325573e+01 1.55813950e+02 6.74418640e+01 1.63953491e+02
      9.41860428e+01 1.72093018e+02 1.19767441e+02 1.80232559e+02
      1.46511627e+02 1.41860458e+02 1.69767441e+02 1.56976746e+02
      1.70930237e+02 1.73255814e+02 1.72093018e+02 1.83720932e+02
      1.66279068e+02 1.93023254e+02 1.59302322e+02 5.69767456e+01
      8.37209320e+01 7.32558136e+01 7.79069748e+01 8.95348816e+01
      7.55813980e+01 1.04651161e+02 8.02325592e+01 9.06976776e+01
      8.60465088e+01 7.44186020e+01 8.72093048e+01 1.79069763e+02
      7.32558136e+01 1.93023254e+02 6.62790680e+01 2.06976746e+02
      6.51162796e+01 2.18604645e+02 6.74418640e+01 2.09302322e+02
      7.44186020e+01 1.95348831e+02 7.55813980e+01 1.12790695e+02
      2.18604645e+02 1.38372086e+02 2.08139542e+02 1.59302322e+02
      2.01162796e+02 1.72093018e+02 2.02325577e+02 1.81395355e+02
      1.97674423e+02 1.93023254e+02 200. 2.03488373e+02 2.05813950e+02
      1.96511627e+02 2.24418610e+02 1.87209305e+02 2.34883728e+02
      1.76744186e+02 2.38372086e+02 1.63953491e+02 2.39534882e+02
      1.40697678e+02 2.36046509e+02 1.22093025e+02 2.18604645e+02
      1.61627914e+02 2.13953491e+02 1.73255814e+02 2.13953491e+02
      1.82558136e+02 2.10465118e+02 1.96511627e+02 2.06976746e+02
      1.83720932e+02 2.17441864e+02 1.74418610e+02 2.20930237e+02
      1.61627914e+02 2.22093018e+02</_>
    <_>
      -50. 9.30232544e+01 -4.30232544e+01 1.38372086e+02 -3.37209320e+01
      1.83720932e+02 -1.74418602e+01 2.24418610e+02 1.16279068e+01
      2.59302338e+02 4.88372078e+01 2.84883728e+02 9.30232544e+01
      3.01162781e+02 1.34883728e+02 3.12790710e+02 1.72093018e+02
      3.11627899e+02 200. 2.97674408e+02 2.15116272e+02 2.69767456e+02
      2.26744186e+02 2.37209305e+02 2.36046509e+02 2.05813950e+02
      2.45348831e+02 1.73255814e+02 2.52325577e+02 1.40697678e+02
      2.53488373e+02 1.06976746e+02 2.48837204e+02 7.32558136e+01
      2.09302330e+01 5.93023262e+01 4.53488388e+01 4.30232544e+01
      7.55813980e+01 3.48837204e+01 1.04651161e+02 3.72093010e+01
      1.31395355e+02 4.65116272e+01 1.73255814e+02 4.65116272e+01
      1.90697678e+02 3.60465126e+01 2.10465118e+02 3.13953495e+01
      2.29069763e+02 3.25581398e+01 2.41860458e+02 4.41860466e+01
      1.58139542e+02 7.79069748e+01 1.65116272e+02 1.04651161e+02
      1.73255814e+02 1.31395355e+02 1.80232559e+02 1.58139542e+02
      1.40697678e+02 1.80232559e+02 1.55813950e+02 1.81395355e+02
      1.72093018e+02 1.83720932e+02 1.83720932e+02 1.79069763e+02
      1.94186050e+02 1.72093018e+02 5.58139534e+01 8.72093048e+01
      7.32558136e+01 8.02325592e+01 9.18604660e+01 7.79069748e+01
      1.05813957e+02 8.72093048e+01 9.18604660e+01 9.18604660e+01
      7.44186020e+01 9.30232544e+01 1.83720932e+02 8.25581360e+01
      1.97674423e+02 7.32558136e+01 2.12790695e+02 7.09302292e+01
      2.24418610e+02 7.67441864e+01 2.15116272e+02 8.37209320e+01
      1.98837204e+02 8.48837204e+01 1.10465118e+02 2.30232559e+02
      1.37209305e+02 2.20930237e+02 1.59302322e+02 2.13953491e+02
      1.70930237e+02 2.15116272e+02 1.79069763e+02 2.10465118e+02
      1.90697678e+02 2.13953491e+02 200. 2.20930237e+02 1.93023254e+02
      2.38372086e+02 1.82558136e+02 2.47674423e+02 1.73255814e+02
      2.51162796e+02 1.60465118e+02 2.52325577e+02 1.37209305e+02
      2.47674423e+02 1.20930229e+02 2.30232559e+02 1.59302322e+02
      2.25581390e+02 1.72093018e+02 2.25581390e+02 1.80232559e+02
      2.23255814e+02 1.93023254e+02 2.22093018e+02 1.80232559e+02
      2.30232559e+02 1.72093018e+02 2.33720932e+02 1.59302322e+02
      2.33720932e+02</_>
    <_>
      -5.23255806e+01 8.37209320e+01 -4.41860466e+01 1.33720932e+02
      -3.48837204e+01 1.82558136e+02 -1.86046505e+01 2.26744186e+02
      1.16279068e+01 2.63953491e+02 5.34883728e+01 2.90697662e+02
      9.88372116e+01 3.08139526e+02 1.44186050e+02 3.18604645e+02
      1.82558136e+02 3.13953491e+02 2.10465118e+02 2.98837219e+02
      2.23255814e+02 2.69767456e+02 2.33720932e+02 2.38372086e+02
      2.43023254e+02 2.06976746e+02 2.51162796e+02 1.73255814e+02
      2.58139526e+02 1.41860458e+02 2.60465118e+02 1.08139534e+02
      2.55813950e+02 7.44186020e+01 2.67441864e+01 5.58139534e+01
      5.46511612e+01 3.95348854e+01 8.60465088e+01 3.13953495e+01
      1.17441864e+02 3.48837204e+01 1.45348831e+02 4.41860466e+01
      1.88372086e+02 4.41860466e+01 2.05813950e+02 3.48837204e+01
      2.24418610e+02 2.90697670e+01 2.43023254e+02 3.02325573e+01
      2.53488373e+02 4.18604660e+01 1.72093018e+02 7.67441864e+01
      1.79069763e+02 1.03488373e+02 1.87209305e+02 1.30232559e+02
      1.94186050e+02 1.58139542e+02 150. 1.80232559e+02 1.67441864e+02
      1.82558136e+02 1.83720932e+02 1.84883728e+02 1.96511627e+02
      1.80232559e+02 2.05813950e+02 1.72093018e+02 6.27906990e+01
      8.60465088e+01 8.13953476e+01 7.90697708e+01 100. 7.79069748e+01
      1.15116280e+02 8.60465088e+01 100. 9.06976776e+01 8.13953476e+01
      9.06976776e+01 1.94186050e+02 8.13953476e+01 2.08139542e+02
      7.20930252e+01 2.24418610e+02 7.09302292e+01 2.36046509e+02
      7.55813980e+01 2.25581390e+02 8.25581360e+01 2.10465118e+02
      8.48837204e+01 1.15116280e+02 2.29069763e+02 1.45348831e+02
      2.20930237e+02 1.69767441e+02 2.13953491e+02 1.82558136e+02
      2.16279068e+02 1.91860458e+02 2.11627914e+02 2.02325577e+02
      2.13953491e+02 2.11627914e+02 2.19767441e+02 2.03488373e+02
      2.38372086e+02 1.94186050e+02 2.48837204e+02 1.82558136e+02
      2.52325577e+02 1.68604645e+02 2.53488373e+02 1.45348831e+02
      2.47674423e+02 1.25581398e+02 2.30232559e+02 1.69767441e+02
      2.26744186e+02 1.82558136e+02 2.26744186e+02 1.91860458e+02
      2.23255814e+02 2.04651169e+02 2.22093018e+02 1.91860458e+02
      2.30232559e+02 1.82558136e+02 2.33720932e+02 1.69767441e+02
      2.34883728e+02</_>
    <_>
      -5.23255806e+01 8.72093048e+01 -4.53488388e+01 1.36046509e+02
      -3.48837204e+01 1.84883728e+02 -1.86046505e+01 2.29069763e+02
      1.04651165e+01 2.65116272e+02 5.11627922e+01 2.91860474e+02
      9.76744156e+01 3.08139526e+02 1.44186050e+02 3.18604645e+02
      1.82558136e+02 3.13953491e+02 2.10465118e+02 2.98837219e+02
      2.23255814e+02 2.68604645e+02 2.33720932e+02 2.37209305e+02
      2.43023254e+02 2.04651169e+02 250. 1.72093018e+02 2.56976746e+02
      1.40697678e+02 2.58139526e+02 1.06976746e+02 2.53488373e+02
      7.32558136e+01 2.67441864e+01 5.93023262e+01 5.23255806e+01
      4.06976738e+01 8.48837204e+01 3.13953495e+01 1.16279068e+02
      3.37209320e+01 1.45348831e+02 4.41860466e+01 1.84883728e+02
      4.41860466e+01 2.02325577e+02 3.37209320e+01 2.22093018e+02
      2.79069767e+01 2.40697678e+02 2.90697670e+01 2.51162796e+02
      4.18604660e+01 1.69767441e+02 7.55813980e+01 1.77906982e+02
      1.02325584e+02 1.86046509e+02 1.27906975e+02 1.94186050e+02
      1.55813950e+02 150. 1.79069763e+02 1.67441864e+02 1.80232559e+02
      1.83720932e+02 1.82558136e+02 1.95348831e+02 1.77906982e+02
      2.05813950e+02 1.69767441e+02 6.27906990e+01 8.60465088e+01
      8.13953476e+01 7.90697708e+01 100. 7.67441864e+01 1.15116280e+02
      8.60465088e+01 100. 9.06976776e+01 8.13953476e+01 9.18604660e+01
      1.91860458e+02 8.13953476e+01 2.05813950e+02 7.09302292e+01
      2.20930237e+02 6.97674408e+01 2.33720932e+02 7.44186020e+01
      2.23255814e+02 8.25581360e+01 2.08139542e+02 8.37209320e+01
      1.18604652e+02 2.30232559e+02 1.47674423e+02 2.20930237e+02
      1.70930237e+02 2.12790695e+02 1.82558136e+02 2.15116272e+02
      1.91860458e+02 2.10465118e+02 2.01162796e+02 2.12790695e+02
      2.10465118e+02 2.19767441e+02 2.02325577e+02 2.37209305e+02
      1.93023254e+02 2.46511627e+02 1.83720932e+02 2.51162796e+02
      1.70930237e+02 2.52325577e+02 1.47674423e+02 2.47674423e+02
      1.29069763e+02 2.30232559e+02 1.70930237e+02 2.25581390e+02
      1.82558136e+02 2.25581390e+02 1.91860458e+02 2.22093018e+02
      2.03488373e+02 2.22093018e+02 1.91860458e+02 2.29069763e+02
      1.82558136e+02 2.32558136e+02 1.70930237e+02 2.33720932e+02</_>
    <_>
      -4.88372078e+01 9.30232544e+01 -4.06976738e+01 1.37209305e+02
      -2.90697670e+01 1.80232559e+02 -1.27906981e+01 2.19767441e+02
      1.51162786e+01 2.53488373e+02 5.11627922e+01 2.80232544e+02
      9.18604660e+01 2.97674408e+02 1.32558136e+02 3.06976746e+02
      1.68604645e+02 3.05813965e+02 1.96511627e+02 2.93023254e+02
      2.10465118e+02 2.65116272e+02 2.23255814e+02 2.34883728e+02
      2.32558136e+02 2.02325577e+02 2.41860458e+02 1.69767441e+02
      2.48837204e+02 1.37209305e+02 2.51162796e+02 1.03488373e+02
      2.46511627e+02 6.97674408e+01 1.86046505e+01 5.69767456e+01
      4.18604660e+01 4.18604660e+01 7.09302292e+01 3.48837204e+01
      9.88372116e+01 3.72093010e+01 1.25581398e+02 4.65116272e+01
      1.65116272e+02 4.65116272e+01 1.83720932e+02 3.60465126e+01
      2.04651169e+02 3.02325573e+01 2.24418610e+02 3.13953495e+01
      2.37209305e+02 4.41860466e+01 1.51162796e+02 7.79069748e+01
      1.58139542e+02 1.05813957e+02 1.65116272e+02 1.32558136e+02
      1.72093018e+02 1.59302322e+02 1.32558136e+02 1.81395355e+02 150.
      1.82558136e+02 1.66279068e+02 1.84883728e+02 1.77906982e+02
      1.80232559e+02 1.88372086e+02 1.73255814e+02 50. 8.72093048e+01
      6.74418640e+01 8.13953476e+01 8.48837204e+01 8.02325592e+01
      1.01162788e+02 8.72093048e+01 8.48837204e+01 9.18604660e+01
      6.74418640e+01 9.30232544e+01 1.77906982e+02 8.25581360e+01
      1.91860458e+02 7.44186020e+01 2.08139542e+02 7.32558136e+01
      2.20930237e+02 7.67441864e+01 2.09302322e+02 8.48837204e+01
      1.94186050e+02 8.60465088e+01 1.04651161e+02 2.31395355e+02
      1.29069763e+02 2.20930237e+02 1.52325577e+02 2.13953491e+02
      1.65116272e+02 2.16279068e+02 1.75581390e+02 2.10465118e+02
      1.87209305e+02 2.13953491e+02 1.96511627e+02 2.20930237e+02
      1.89534882e+02 2.38372086e+02 1.77906982e+02 2.48837204e+02
      1.67441864e+02 2.52325577e+02 1.52325577e+02 2.52325577e+02
      1.30232559e+02 2.48837204e+02 1.13953491e+02 2.31395355e+02
      1.52325577e+02 2.26744186e+02 1.66279068e+02 2.26744186e+02
      1.75581390e+02 2.23255814e+02 1.89534882e+02 2.23255814e+02
      1.76744186e+02 2.29069763e+02 1.66279068e+02 2.32558136e+02
      1.52325577e+02 2.33720932e+02</_>
    <_>
      4.65116262e+00 8.95348816e+01 1.04651165e+01 1.26744186e+02
      1.97674427e+01 1.63953491e+02 3.25581398e+01 1.98837204e+02
      5.11627922e+01 2.31395355e+02 7.32558136e+01 2.60465118e+02 100.
      2.84883728e+02 1.31395355e+02 3.02325592e+02 1.63953491e+02
      3.05813965e+02 1.95348831e+02 2.97674408e+02 2.20930237e+02
      2.74418610e+02 2.43023254e+02 2.46511627e+02 2.61627899e+02
      2.13953491e+02 2.74418610e+02 1.80232559e+02 2.82558136e+02
      1.43023254e+02 2.86046509e+02 1.05813957e+02 2.84883728e+02
      6.62790680e+01 3.02325573e+01 5.81395340e+01 4.76744194e+01
      4.30232544e+01 7.32558136e+01 4.06976738e+01 9.76744156e+01
      4.41860466e+01 1.19767441e+02 5.46511612e+01 1.58139542e+02
      5.34883728e+01 1.81395355e+02 4.06976738e+01 2.06976746e+02
      3.48837204e+01 2.32558136e+02 3.72093010e+01 2.51162796e+02
      5.23255806e+01 1.43023254e+02 8.48837204e+01 1.46511627e+02
      1.13953491e+02 1.48837204e+02 1.43023254e+02 1.51162796e+02
      1.72093018e+02 1.20930229e+02 1.86046509e+02 1.34883728e+02
      1.90697678e+02 1.51162796e+02 1.95348831e+02 1.65116272e+02
      1.89534882e+02 1.77906982e+02 1.83720932e+02 5.81395340e+01
      8.95348816e+01 7.32558136e+01 8.25581360e+01 8.95348816e+01
      8.25581360e+01 1.05813957e+02 9.06976776e+01 8.95348816e+01
      9.53488388e+01 7.32558136e+01 9.53488388e+01 1.79069763e+02
      8.95348816e+01 1.95348831e+02 7.90697708e+01 2.12790695e+02
      7.90697708e+01 2.29069763e+02 8.37209320e+01 2.15116272e+02
      9.06976776e+01 1.97674423e+02 9.18604660e+01 1.03488373e+02
      2.31395355e+02 1.20930229e+02 2.24418610e+02 1.38372086e+02
      2.19767441e+02 1.51162796e+02 2.23255814e+02 1.62790695e+02
      2.18604645e+02 1.79069763e+02 2.22093018e+02 1.95348831e+02
      2.29069763e+02 1.82558136e+02 250. 1.67441864e+02 2.59302338e+02
      1.53488373e+02 2.61627899e+02 1.39534882e+02 2.60465118e+02
      1.20930229e+02 2.52325577e+02 1.11627907e+02 2.32558136e+02
      1.39534882e+02 2.31395355e+02 1.52325577e+02 2.32558136e+02
      1.63953491e+02 2.30232559e+02 1.87209305e+02 2.30232559e+02
      1.63953491e+02 2.39534882e+02 1.52325577e+02 2.41860458e+02
      1.38372086e+02 2.40697678e+02</_>
    <_>
      2.32558131e+00 1.03488373e+02 8.13953495e+00 1.40697678e+02
      1.86046505e+01 1.76744186e+02 3.25581398e+01 2.10465118e+02
      5.23255806e+01 2.40697678e+02 7.67441864e+01 2.67441864e+02
      1.03488373e+02 2.88372101e+02 1.33720932e+02 3.03488373e+02
      1.65116272e+02 3.05813965e+02 1.95348831e+02 2.97674408e+02
      2.18604645e+02 2.73255829e+02 2.38372086e+02 2.45348831e+02
      2.53488373e+02 2.13953491e+02 2.65116272e+02 1.79069763e+02
      2.72093018e+02 1.44186050e+02 2.74418610e+02 1.06976746e+02
      2.73255829e+02 7.09302292e+01 2.55813961e+01 6.27906990e+01
      4.06976738e+01 4.65116272e+01 6.51162796e+01 4.18604660e+01
      8.95348816e+01 4.53488388e+01 1.11627907e+02 5.46511612e+01 150.
      5.23255806e+01 1.72093018e+02 3.95348854e+01 1.97674423e+02
      3.37209320e+01 2.23255814e+02 3.60465126e+01 2.40697678e+02
      5.23255806e+01 1.36046509e+02 8.83720932e+01 1.39534882e+02
      1.16279068e+02 1.43023254e+02 1.44186050e+02 1.45348831e+02
      1.72093018e+02 1.17441864e+02 1.88372086e+02 1.31395355e+02
      1.93023254e+02 1.46511627e+02 1.95348831e+02 1.60465118e+02
      1.90697678e+02 1.73255814e+02 1.83720932e+02 5.11627922e+01
      9.30232544e+01 6.51162796e+01 8.48837204e+01 8.25581360e+01
      8.48837204e+01 9.88372116e+01 9.53488388e+01 8.25581360e+01
      9.88372116e+01 6.51162796e+01 9.88372116e+01 1.72093018e+02
      9.18604660e+01 1.88372086e+02 7.90697708e+01 2.05813950e+02
      7.79069748e+01 2.22093018e+02 8.37209320e+01 2.08139542e+02
      9.18604660e+01 1.89534882e+02 9.41860428e+01 1.03488373e+02
      2.36046509e+02 1.19767441e+02 2.26744186e+02 1.37209305e+02
      2.20930237e+02 1.48837204e+02 2.23255814e+02 1.60465118e+02
      2.18604645e+02 1.76744186e+02 2.22093018e+02 1.91860458e+02
      2.29069763e+02 1.81395355e+02 250. 1.66279068e+02 2.59302338e+02
      1.53488373e+02 2.62790710e+02 1.39534882e+02 2.61627899e+02
      1.20930229e+02 2.54651169e+02 1.11627907e+02 2.37209305e+02
      1.38372086e+02 2.34883728e+02 150. 2.34883728e+02 1.61627914e+02
      2.32558136e+02 1.83720932e+02 2.30232559e+02 1.62790695e+02
      2.40697678e+02 1.51162796e+02 2.43023254e+02 1.38372086e+02
      2.43023254e+02</_>
    <_>
      0. 9.76744156e+01 6.97674417e+00 1.36046509e+02 1.74418602e+01
      1.72093018e+02 3.02325573e+01 2.06976746e+02 50. 2.38372086e+02
      7.32558136e+01 2.66279083e+02 100. 2.87209290e+02 1.30232559e+02
      3.02325592e+02 1.62790695e+02 3.05813965e+02 1.94186050e+02
      2.96511627e+02 2.18604645e+02 2.72093018e+02 2.38372086e+02
      2.44186050e+02 2.54651169e+02 2.12790695e+02 2.65116272e+02
      1.79069763e+02 2.72093018e+02 1.43023254e+02 2.74418610e+02
      1.05813957e+02 2.73255829e+02 6.86046524e+01 2.55813961e+01
      6.16279068e+01 4.18604660e+01 4.53488388e+01 6.62790680e+01
      4.18604660e+01 9.06976776e+01 4.53488388e+01 1.13953491e+02
      5.46511612e+01 1.52325577e+02 5.11627922e+01 1.74418610e+02
      3.95348854e+01 1.98837204e+02 3.25581398e+01 2.24418610e+02
      3.48837204e+01 2.43023254e+02 4.88372078e+01 1.38372086e+02
      8.72093048e+01 1.40697678e+02 1.15116280e+02 1.44186050e+02
      1.43023254e+02 1.46511627e+02 1.72093018e+02 1.18604652e+02
      1.88372086e+02 1.32558136e+02 1.93023254e+02 1.47674423e+02
      1.95348831e+02 1.60465118e+02 1.90697678e+02 1.73255814e+02
      1.84883728e+02 5.23255806e+01 9.30232544e+01 6.74418640e+01
      8.48837204e+01 8.48837204e+01 8.37209320e+01 100. 9.53488388e+01
      8.48837204e+01 9.88372116e+01 6.74418640e+01 9.88372116e+01
      1.73255814e+02 9.06976776e+01 1.89534882e+02 7.79069748e+01
      2.06976746e+02 7.67441864e+01 2.23255814e+02 8.25581360e+01
      2.09302322e+02 9.18604660e+01 1.90697678e+02 9.30232544e+01
      1.03488373e+02 2.34883728e+02 1.19767441e+02 2.26744186e+02
      1.36046509e+02 2.20930237e+02 1.48837204e+02 2.23255814e+02
      1.60465118e+02 2.18604645e+02 1.76744186e+02 2.22093018e+02
      1.91860458e+02 2.29069763e+02 1.80232559e+02 2.48837204e+02
      1.65116272e+02 2.58139526e+02 1.52325577e+02 2.60465118e+02
      1.38372086e+02 2.59302338e+02 1.20930229e+02 2.53488373e+02
      1.11627907e+02 2.36046509e+02 1.37209305e+02 2.33720932e+02 150.
      2.34883728e+02 1.61627914e+02 2.32558136e+02 1.83720932e+02
      2.30232559e+02 1.61627914e+02 2.38372086e+02 150. 2.40697678e+02
      1.37209305e+02 2.39534882e+02</_>
    <_>
      8.13953495e+00 9.88372116e+01 1.27906981e+01 1.36046509e+02
      2.20930233e+01 1.72093018e+02 3.37209320e+01 2.06976746e+02
      5.23255806e+01 2.38372086e+02 7.44186020e+01 2.66279083e+02
      1.01162788e+02 2.88372101e+02 1.30232559e+02 3.03488373e+02
      1.63953491e+02 3.06976746e+02 1.95348831e+02 2.98837219e+02
      2.19767441e+02 2.75581390e+02 2.39534882e+02 2.47674423e+02
      2.55813950e+02 2.16279068e+02 2.67441864e+02 1.81395355e+02
      2.75581390e+02 1.45348831e+02 2.79069763e+02 1.09302322e+02
      2.79069763e+02 7.09302292e+01 3.13953495e+01 6.04651146e+01
      4.88372078e+01 4.41860466e+01 7.20930252e+01 4.06976738e+01
      9.65116272e+01 4.41860466e+01 1.18604652e+02 5.46511612e+01
      1.55813950e+02 5.23255806e+01 1.79069763e+02 3.95348854e+01
      2.04651169e+02 3.25581398e+01 2.30232559e+02 3.48837204e+01
      2.47674423e+02 5.11627922e+01 1.43023254e+02 8.60465088e+01
      1.45348831e+02 1.13953491e+02 1.47674423e+02 1.41860458e+02 150.
      1.70930237e+02 1.20930229e+02 1.87209305e+02 1.34883728e+02
      1.91860458e+02 150. 1.95348831e+02 1.63953491e+02 1.90697678e+02
      1.76744186e+02 1.84883728e+02 5.69767456e+01 9.06976776e+01
      7.09302292e+01 8.25581360e+01 8.83720932e+01 8.25581360e+01
      1.03488373e+02 9.30232544e+01 8.83720932e+01 9.65116272e+01
      7.09302292e+01 9.65116272e+01 1.79069763e+02 8.95348816e+01
      1.94186050e+02 7.79069748e+01 2.12790695e+02 7.67441864e+01
      2.27906982e+02 8.25581360e+01 2.13953491e+02 9.06976776e+01
      1.96511627e+02 9.18604660e+01 1.06976746e+02 2.34883728e+02
      1.22093025e+02 2.25581390e+02 1.38372086e+02 2.20930237e+02 150.
      2.23255814e+02 1.62790695e+02 2.19767441e+02 1.79069763e+02
      2.23255814e+02 1.94186050e+02 2.30232559e+02 1.81395355e+02 250.
      1.67441864e+02 2.58139526e+02 1.53488373e+02 2.60465118e+02
      1.39534882e+02 2.59302338e+02 1.22093025e+02 2.52325577e+02
      1.13953491e+02 2.34883728e+02 1.39534882e+02 2.32558136e+02
      1.51162796e+02 2.33720932e+02 1.63953491e+02 2.31395355e+02
      1.86046509e+02 2.31395355e+02 1.63953491e+02 2.40697678e+02
      1.52325577e+02 2.43023254e+02 1.39534882e+02 2.41860458e+02</_>
    <_>
      5.81395340e+00 9.30232544e+01 1.16279068e+01 1.31395355e+02
      2.09302330e+01 1.68604645e+02 3.37209320e+01 2.03488373e+02
      5.11627922e+01 2.36046509e+02 7.44186020e+01 2.63953491e+02
      1.01162788e+02 2.86046509e+02 1.32558136e+02 3.01162781e+02
      1.66279068e+02 3.03488373e+02 1.96511627e+02 2.95348846e+02
      2.22093018e+02 2.72093018e+02 2.41860458e+02 2.44186050e+02
      2.58139526e+02 2.12790695e+02 2.69767456e+02 1.77906982e+02
      2.76744171e+02 1.41860458e+02 2.80232544e+02 1.04651161e+02
      2.80232544e+02 6.62790680e+01 3.13953495e+01 5.93023262e+01
      4.88372078e+01 4.30232544e+01 7.20930252e+01 3.95348854e+01
      9.76744156e+01 4.30232544e+01 1.19767441e+02 5.34883728e+01
      1.58139542e+02 5.11627922e+01 1.80232559e+02 3.83720932e+01
      2.05813950e+02 3.25581398e+01 2.31395355e+02 3.48837204e+01
      2.48837204e+02 50. 1.44186050e+02 8.48837204e+01 1.46511627e+02
      1.13953491e+02 150. 1.40697678e+02 1.52325577e+02 1.69767441e+02
      1.23255814e+02 1.86046509e+02 1.37209305e+02 1.90697678e+02
      1.52325577e+02 1.93023254e+02 1.65116272e+02 1.88372086e+02
      1.77906982e+02 1.83720932e+02 5.81395340e+01 8.95348816e+01
      7.20930252e+01 8.25581360e+01 8.95348816e+01 8.13953476e+01
      1.04651161e+02 9.18604660e+01 8.95348816e+01 9.53488388e+01
      7.20930252e+01 9.65116272e+01 1.80232559e+02 8.95348816e+01
      1.95348831e+02 7.79069748e+01 2.12790695e+02 7.67441864e+01
      2.29069763e+02 8.25581360e+01 2.15116272e+02 9.06976776e+01
      1.97674423e+02 9.18604660e+01 1.06976746e+02 2.32558136e+02
      1.23255814e+02 2.24418610e+02 1.39534882e+02 2.19767441e+02
      1.52325577e+02 2.22093018e+02 1.65116272e+02 2.17441864e+02
      1.80232559e+02 2.22093018e+02 1.96511627e+02 2.27906982e+02
      1.83720932e+02 2.47674423e+02 1.68604645e+02 2.56976746e+02
      1.55813950e+02 2.59302338e+02 1.41860458e+02 2.58139526e+02
      1.24418602e+02 2.51162796e+02 1.13953491e+02 2.33720932e+02
      1.40697678e+02 2.31395355e+02 1.53488373e+02 2.32558136e+02
      1.65116272e+02 2.30232559e+02 1.88372086e+02 2.29069763e+02
      1.66279068e+02 2.37209305e+02 1.53488373e+02 2.39534882e+02
      1.40697678e+02 2.39534882e+02</_>
    <_>
      -5.81395340e+00 9.41860428e+01 1.16279066e+00 1.33720932e+02
      1.16279068e+01 1.72093018e+02 2.44186039e+01 2.09302322e+02
      4.30232544e+01 2.40697678e+02 6.97674408e+01 2.68604645e+02 100.
      2.90697662e+02 1.32558136e+02 3.05813965e+02 1.67441864e+02
      3.06976746e+02 1.98837204e+02 300. 2.23255814e+02 2.76744171e+02
      2.43023254e+02 2.48837204e+02 2.60465118e+02 2.16279068e+02
      2.72093018e+02 1.82558136e+02 2.79069763e+02 1.45348831e+02
      2.83720917e+02 1.09302322e+02 2.82558136e+02 7.09302292e+01
      2.90697670e+01 6.27906990e+01 4.65116272e+01 4.53488388e+01
      7.20930252e+01 3.95348854e+01 9.88372116e+01 4.30232544e+01
      1.22093025e+02 5.34883728e+01 1.62790695e+02 5.11627922e+01
      1.86046509e+02 3.83720932e+01 2.11627914e+02 3.25581398e+01
      2.36046509e+02 3.60465126e+01 2.53488373e+02 5.11627922e+01
      1.47674423e+02 8.48837204e+01 1.51162796e+02 1.13953491e+02
      1.54651169e+02 1.41860458e+02 1.58139542e+02 1.69767441e+02
      1.27906975e+02 1.88372086e+02 1.41860458e+02 1.91860458e+02
      1.55813950e+02 1.94186050e+02 1.68604645e+02 1.89534882e+02
      1.80232559e+02 1.84883728e+02 5.81395340e+01 8.95348816e+01
      7.32558136e+01 8.25581360e+01 9.06976776e+01 8.13953476e+01
      1.06976746e+02 9.18604660e+01 9.06976776e+01 9.65116272e+01
      7.32558136e+01 9.65116272e+01 1.82558136e+02 8.95348816e+01
      1.98837204e+02 7.79069748e+01 2.17441864e+02 7.67441864e+01
      2.32558136e+02 8.25581360e+01 2.19767441e+02 9.06976776e+01
      2.01162796e+02 9.18604660e+01 1.06976746e+02 2.34883728e+02
      1.25581398e+02 2.26744186e+02 1.43023254e+02 2.20930237e+02
      1.55813950e+02 2.24418610e+02 1.67441864e+02 2.18604645e+02
      1.83720932e+02 2.23255814e+02 1.98837204e+02 2.31395355e+02
      1.87209305e+02 250. 1.70930237e+02 2.58139526e+02 1.58139542e+02
      2.60465118e+02 1.44186050e+02 2.59302338e+02 1.26744186e+02
      2.52325577e+02 1.16279068e+02 2.36046509e+02 1.44186050e+02
      2.34883728e+02 1.55813950e+02 2.36046509e+02 1.68604645e+02
      2.32558136e+02 1.90697678e+02 2.32558136e+02 1.68604645e+02
      2.38372086e+02 1.56976746e+02 2.40697678e+02 1.44186050e+02
      2.39534882e+02</_>
    <_>
      -9.30232525e+00 9.30232544e+01 -2.32558131e+00 1.32558136e+02
      8.13953495e+00 1.70930237e+02 2.20930233e+01 2.06976746e+02
      4.18604660e+01 2.39534882e+02 6.86046524e+01 2.67441864e+02 100.
      2.88372101e+02 1.33720932e+02 3.02325592e+02 1.67441864e+02
      3.05813965e+02 1.98837204e+02 2.97674408e+02 2.23255814e+02
      2.74418610e+02 2.44186050e+02 2.45348831e+02 2.60465118e+02
      2.13953491e+02 2.72093018e+02 1.79069763e+02 2.80232544e+02
      1.43023254e+02 2.83720917e+02 1.05813957e+02 2.82558136e+02
      6.86046524e+01 3.02325573e+01 6.04651146e+01 4.76744194e+01
      4.41860466e+01 7.44186020e+01 3.95348854e+01 100. 4.30232544e+01
      1.24418602e+02 5.23255806e+01 1.62790695e+02 5.11627922e+01
      1.86046509e+02 3.83720932e+01 2.11627914e+02 3.25581398e+01
      2.36046509e+02 3.48837204e+01 2.53488373e+02 5.11627922e+01
      1.48837204e+02 8.48837204e+01 1.52325577e+02 1.13953491e+02
      1.56976746e+02 1.41860458e+02 1.59302322e+02 1.72093018e+02
      1.27906975e+02 1.87209305e+02 1.43023254e+02 1.90697678e+02
      1.58139542e+02 1.94186050e+02 1.72093018e+02 1.89534882e+02
      1.83720932e+02 1.84883728e+02 5.93023262e+01 8.95348816e+01
      7.55813980e+01 8.25581360e+01 9.30232544e+01 8.13953476e+01
      1.08139534e+02 9.18604660e+01 9.30232544e+01 9.53488388e+01
      7.44186020e+01 9.53488388e+01 1.84883728e+02 8.95348816e+01 200.
      7.79069748e+01 2.18604645e+02 7.67441864e+01 2.33720932e+02
      8.25581360e+01 2.19767441e+02 9.06976776e+01 2.02325577e+02
      9.18604660e+01 1.08139534e+02 2.32558136e+02 1.26744186e+02
      2.24418610e+02 1.45348831e+02 2.19767441e+02 1.58139542e+02
      2.23255814e+02 1.69767441e+02 2.18604645e+02 1.86046509e+02
      2.22093018e+02 200. 2.29069763e+02 1.88372086e+02 2.48837204e+02
      1.73255814e+02 2.58139526e+02 1.60465118e+02 2.59302338e+02
      1.46511627e+02 2.58139526e+02 1.26744186e+02 2.51162796e+02
      1.17441864e+02 2.33720932e+02 1.46511627e+02 2.31395355e+02
      1.58139542e+02 2.33720932e+02 1.70930237e+02 2.31395355e+02
      1.91860458e+02 2.30232559e+02 1.70930237e+02 2.38372086e+02
      1.58139542e+02 2.40697678e+02 1.45348831e+02 2.39534882e+02</_>
    <_>
      1.04651165e+01 9.65116272e+01 1.62790699e+01 1.34883728e+02
      2.55813961e+01 1.70930237e+02 3.83720932e+01 2.06976746e+02
      5.69767456e+01 2.37209305e+02 8.13953476e+01 2.65116272e+02
      1.09302322e+02 2.86046509e+02 1.39534882e+02 3.01162781e+02
      1.72093018e+02 3.03488373e+02 2.01162796e+02 2.95348846e+02
      2.24418610e+02 2.70930237e+02 2.45348831e+02 2.44186050e+02
      2.61627899e+02 2.12790695e+02 2.74418610e+02 1.79069763e+02
      2.81395355e+02 1.43023254e+02 2.84883728e+02 1.06976746e+02
      2.83720917e+02 6.97674408e+01 3.48837204e+01 6.04651146e+01
      5.23255806e+01 4.41860466e+01 7.67441864e+01 3.95348854e+01
      1.02325584e+02 4.30232544e+01 1.24418602e+02 5.23255806e+01
      1.63953491e+02 5.11627922e+01 1.86046509e+02 3.83720932e+01
      2.11627914e+02 3.25581398e+01 2.36046509e+02 3.48837204e+01
      2.53488373e+02 5.11627922e+01 150. 8.48837204e+01 1.52325577e+02
      1.13953491e+02 1.55813950e+02 1.41860458e+02 1.59302322e+02
      1.72093018e+02 1.29069763e+02 1.87209305e+02 1.43023254e+02
      1.90697678e+02 1.58139542e+02 1.94186050e+02 1.72093018e+02
      1.89534882e+02 1.83720932e+02 1.83720932e+02 6.27906990e+01
      8.95348816e+01 7.79069748e+01 8.25581360e+01 9.41860428e+01
      8.13953476e+01 1.09302322e+02 9.18604660e+01 9.41860428e+01
      9.53488388e+01 7.67441864e+01 9.53488388e+01 1.84883728e+02
      8.95348816e+01 2.01162796e+02 7.79069748e+01 2.18604645e+02
      7.67441864e+01 2.33720932e+02 8.25581360e+01 2.20930237e+02
      9.06976776e+01 2.02325577e+02 9.06976776e+01 1.11627907e+02
      2.32558136e+02 1.29069763e+02 2.25581390e+02 1.46511627e+02
      2.20930237e+02 1.58139542e+02 2.23255814e+02 1.69767441e+02
      2.18604645e+02 1.86046509e+02 2.22093018e+02 2.01162796e+02
      2.27906982e+02 1.89534882e+02 2.47674423e+02 1.74418610e+02
      2.56976746e+02 1.61627914e+02 2.59302338e+02 1.47674423e+02
      2.59302338e+02 1.29069763e+02 2.52325577e+02 1.18604652e+02
      2.33720932e+02 1.46511627e+02 2.32558136e+02 1.59302322e+02
      2.32558136e+02 1.70930237e+02 2.30232559e+02 1.93023254e+02
      2.29069763e+02 1.72093018e+02 2.38372086e+02 1.59302322e+02
      2.40697678e+02 1.46511627e+02 2.40697678e+02</_>
    <_>
      -3.33333321e+01 3.33333321e+01 -3.75000000e+01 8.33333359e+01
      -3.75000000e+01 1.33333328e+02 -2.91666660e+01 1.79166672e+02
      -8.33333302e+00 2.16666672e+02 2.08333340e+01 2.54166672e+02
      5.41666679e+01 2.87500000e+02 8.75000000e+01 3.12500000e+02
      1.20833336e+02 3.20833344e+02 150. 3.08333344e+02 1.66666672e+02
      2.83333344e+02 1.79166672e+02 250. 1.95833328e+02 2.20833328e+02
      2.16666672e+02 1.91666672e+02 2.29166672e+02 1.58333328e+02
      2.33333328e+02 125. 2.37500000e+02 9.16666641e+01 50.
      4.58333321e+01 7.91666641e+01 4.16666679e+01 1.04166664e+02 50.
      1.29166672e+02 6.25000000e+01 150. 7.91666641e+01 1.79166672e+02
      9.16666641e+01 1.95833328e+02 8.75000000e+01 2.08333328e+02
      8.33333359e+01 2.20833328e+02 8.33333359e+01 2.29166672e+02
      9.16666641e+01 1.62500000e+02 1.08333336e+02 1.62500000e+02
      1.33333328e+02 1.66666672e+02 1.62500000e+02 1.66666672e+02
      1.91666672e+02 1.16666664e+02 1.87500000e+02 1.33333328e+02
      1.95833328e+02 1.54166672e+02 2.04166672e+02 1.70833328e+02 200.
      1.83333328e+02 1.91666672e+02 7.08333359e+01 75. 9.16666641e+01
      75. 1.04166664e+02 8.33333359e+01 1.16666664e+02 9.58333359e+01
      100. 9.16666641e+01 8.33333359e+01 8.75000000e+01 175.
      1.08333336e+02 1.91666672e+02 100. 2.04166672e+02 100.
      2.12500000e+02 1.04166664e+02 200. 1.08333336e+02 1.87500000e+02
      1.08333336e+02 7.91666641e+01 2.04166672e+02 1.08333336e+02
      2.08333328e+02 1.33333328e+02 2.16666672e+02 1.45833328e+02
      2.20833328e+02 1.62500000e+02 2.20833328e+02 175. 2.20833328e+02
      1.83333328e+02 2.29166672e+02 1.70833328e+02 2.66666656e+02
      1.54166672e+02 2.79166656e+02 1.41666672e+02 2.79166656e+02 125.
